<?xml version="1.0"?>
<opencv_storage>
<cascade>
  <stageType>BOOST</stageType>
  <featureType>HAAR</featureType>
  <height>30</height>
  <width>30</width>
  <stageParams>
    <boostType>GAB</boostType>
    <minHitRate>9.9900001287460327e-01</minHitRate>
    <maxFalseAlarm>5.0000000000000000e-01</maxFalseAlarm>
    <weightTrimRate>9.4999999999999996e-01</weightTrimRate>
    <maxDepth>1</maxDepth>
    <maxWeakCount>100</maxWeakCount></stageParams>
  <featureParams>
    <maxCatCount>0</maxCatCount>
    <featSize>1</featSize>
    <mode>BASIC</mode></featureParams>
  <stageNum>16</stageNum>
  <stages>
    <!-- stage 0 -->
    <_>
      <maxWeakCount>6</maxWeakCount>
      <stageThreshold>-3.7571674585342407e-01</stageThreshold>
      <weakClassifiers>
        <_>
          <internalNodes>
            0 -1 68 -1.4775550365447998e-01</internalNodes>
          <leafValues>
            9.8701298236846924e-01 -4.9209140241146088e-02</leafValues></_>
        <_>
          <internalNodes>
            0 -1 111 6.1889186501502991e-02</internalNodes>
          <leafValues>
            -3.1682580709457397e-01 9.7455716133117676e-01</leafValues></_>
        <_>
          <internalNodes>
            0 -1 70 -1.0594355314970016e-01</internalNodes>
          <leafValues>
            9.1933244466781616e-01 -1.3729976117610931e-01</leafValues></_>
        <_>
          <internalNodes>
            0 -1 79 1.0307813063263893e-02</internalNodes>
          <leafValues>
            -2.3431940376758575e-01 8.6077785491943359e-01</leafValues></_>
        <_>
          <internalNodes>
            0 -1 106 1.1128924787044525e-01</internalNodes>
          <leafValues>
            -3.0372682213783264e-01 8.4663498401641846e-01</leafValues></_>
        <_>
          <internalNodes>
            0 -1 15 -3.7982352077960968e-02</internalNodes>
          <leafValues>
            6.6566413640975952e-01 -3.5702610015869141e-01</leafValues></_></weakClassifiers></_>
    <!-- stage 1 -->
    <_>
      <maxWeakCount>8</maxWeakCount>
      <stageThreshold>-9.1686266660690308e-01</stageThreshold>
      <weakClassifiers>
        <_>
          <internalNodes>
            0 -1 52 -1.7722171545028687e-01</internalNodes>
          <leafValues>
            9.7727274894714355e-01 -2.5862069800496101e-02</leafValues></_>
        <_>
          <internalNodes>
            0 -1 83 1.4445227384567261e-01</internalNodes>
          <leafValues>
            -2.6776006817817688e-01 9.7149074077606201e-01</leafValues></_>
        <_>
          <internalNodes>
            0 -1 135 -2.0052739419043064e-03</internalNodes>
          <leafValues>
            7.4078434705734253e-01 -1.9935066998004913e-01</leafValues></_>
        <_>
          <internalNodes>
            0 -1 94 1.0739444196224213e-01</internalNodes>
          <leafValues>
            -2.0700468122959137e-01 7.8819477558135986e-01</leafValues></_>
        <_>
          <internalNodes>
            0 -1 87 -1.4863315224647522e-01</internalNodes>
          <leafValues>
            8.8330852985382080e-01 -2.1676827967166901e-01</leafValues></_>
        <_>
          <internalNodes>
            0 -1 59 -1.7176063556689769e-04</internalNodes>
          <leafValues>
            -7.7695411443710327e-01 3.0153524875640869e-01</leafValues></_>
        <_>
          <internalNodes>
            0 -1 150 1.9997158087790012e-03</internalNodes>
          <leafValues>
            -4.4674760103225708e-01 5.2019613981246948e-01</leafValues></_>
        <_>
          <internalNodes>
            0 -1 59 2.9162428108975291e-04</internalNodes>
          <leafValues>
            3.6547118425369263e-01 -7.9503959417343140e-01</leafValues></_></weakClassifiers></_>
    <!-- stage 2 -->
    <_>
      <maxWeakCount>8</maxWeakCount>
      <stageThreshold>-7.9653346538543701e-01</stageThreshold>
      <weakClassifiers>
        <_>
          <internalNodes>
            0 -1 170 -1.4110354240983725e-03</internalNodes>
          <leafValues>
            -7.9166668653488159e-01 4.3382352590560913e-01</leafValues></_>
        <_>
          <internalNodes>
            0 -1 71 -1.8939758837223053e-01</internalNodes>
          <leafValues>
            9.4133025407791138e-01 -2.5925561785697937e-01</leafValues></_>
        <_>
          <internalNodes>
            0 -1 86 1.1488173902034760e-01</internalNodes>
          <leafValues>
            -3.1848779320716858e-01 9.5192182064056396e-01</leafValues></_>
        <_>
          <internalNodes>
            0 -1 50 -1.0463586449623108e-01</internalNodes>
          <leafValues>
            -8.5637122392654419e-01 2.9143494367599487e-01</leafValues></_>
        <_>
          <internalNodes>
            0 -1 100 -4.5066989958286285e-02</internalNodes>
          <leafValues>
            7.5823086500167847e-01 -2.6966428756713867e-01</leafValues></_>
        <_>
          <internalNodes>
            0 -1 5 4.9194347113370895e-02</internalNodes>
          <leafValues>
            -2.7597808837890625e-01 7.1905332803726196e-01</leafValues></_>
        <_>
          <internalNodes>
            0 -1 136 4.2935268720611930e-04</internalNodes>
          <leafValues>
            -3.6780929565429688e-01 5.7455837726593018e-01</leafValues></_>
        <_>
          <internalNodes>
            0 -1 167 6.1199674382805824e-04</internalNodes>
          <leafValues>
            2.5252571702003479e-01 -7.5428688526153564e-01</leafValues></_></weakClassifiers></_>
    <!-- stage 3 -->
    <_>
      <maxWeakCount>9</maxWeakCount>
      <stageThreshold>-1.0751159191131592e+00</stageThreshold>
      <weakClassifiers>
        <_>
          <internalNodes>
            0 -1 37 1.5399509668350220e-01</internalNodes>
          <leafValues>
            4.2712110280990601e-01 -8.5520362854003906e-01</leafValues></_>
        <_>
          <internalNodes>
            0 -1 68 -2.0792442560195923e-01</internalNodes>
          <leafValues>
            9.6284562349319458e-01 -2.4817503988742828e-01</leafValues></_>
        <_>
          <internalNodes>
            0 -1 101 9.9649630486965179e-02</internalNodes>
          <leafValues>
            -2.7358281612396240e-01 9.1807961463928223e-01</leafValues></_>
        <_>
          <internalNodes>
            0 -1 180 2.7434586081653833e-04</internalNodes>
          <leafValues>
            3.3480235934257507e-01 -7.1543604135513306e-01</leafValues></_>
        <_>
          <internalNodes>
            0 -1 19 1.5925852954387665e-01</internalNodes>
          <leafValues>
            2.0305453240871429e-01 -8.6076331138610840e-01</leafValues></_>
        <_>
          <internalNodes>
            0 -1 17 -1.4865383505821228e-01</internalNodes>
          <leafValues>
            -9.5954340696334839e-01 1.5670588612556458e-01</leafValues></_>
        <_>
          <internalNodes>
            0 -1 148 -2.6552961207926273e-04</internalNodes>
          <leafValues>
            4.4246077537536621e-01 -3.9403849840164185e-01</leafValues></_>
        <_>
          <internalNodes>
            0 -1 102 -5.3551219403743744e-02</internalNodes>
          <leafValues>
            7.5262367725372314e-01 -2.8757181763648987e-01</leafValues></_>
        <_>
          <internalNodes>
            0 -1 173 1.1338994372636080e-03</internalNodes>
          <leafValues>
            2.8412526845932007e-01 -8.6174809932708740e-01</leafValues></_></weakClassifiers></_>
    <!-- stage 4 -->
    <_>
      <maxWeakCount>7</maxWeakCount>
      <stageThreshold>-6.0877472162246704e-01</stageThreshold>
      <weakClassifiers>
        <_>
          <internalNodes>
            0 -1 27 -2.8337383270263672e-01</internalNodes>
          <leafValues>
            9.0140843391418457e-01 1.3628619723021984e-02</leafValues></_>
        <_>
          <internalNodes>
            0 -1 67 1.7176534235477448e-01</internalNodes>
          <leafValues>
            -2.4511657655239105e-01 9.0250289440155029e-01</leafValues></_>
        <_>
          <internalNodes>
            0 -1 58 1.2646004324778914e-04</internalNodes>
          <leafValues>
            2.9727706313133240e-01 -6.2274384498596191e-01</leafValues></_>
        <_>
          <internalNodes>
            0 -1 60 -2.1003533038310707e-04</internalNodes>
          <leafValues>
            -7.6931476593017578e-01 2.3042955994606018e-01</leafValues></_>
        <_>
          <internalNodes>
            0 -1 110 -7.9841569066047668e-02</internalNodes>
          <leafValues>
            8.1086897850036621e-01 -2.5737321376800537e-01</leafValues></_>
        <_>
          <internalNodes>
            0 -1 154 5.0242424011230469e-02</internalNodes>
          <leafValues>
            -2.8305938839912415e-01 7.9408824443817139e-01</leafValues></_>
        <_>
          <internalNodes>
            0 -1 54 7.2018325328826904e-02</internalNodes>
          <leafValues>
            -2.5259628891944885e-01 7.4354809522628784e-01</leafValues></_></weakClassifiers></_>
    <!-- stage 5 -->
    <_>
      <maxWeakCount>11</maxWeakCount>
      <stageThreshold>-9.4619256258010864e-01</stageThreshold>
      <weakClassifiers>
        <_>
          <internalNodes>
            0 -1 77 -6.2821269966661930e-04</internalNodes>
          <leafValues>
            -5.8974361419677734e-01 4.2275810241699219e-01</leafValues></_>
        <_>
          <internalNodes>
            0 -1 75 -1.5112771093845367e-01</internalNodes>
          <leafValues>
            9.3770951032638550e-01 -1.8653956055641174e-01</leafValues></_>
        <_>
          <internalNodes>
            0 -1 38 2.0469641685485840e-01</internalNodes>
          <leafValues>
            -2.1254786849021912e-01 9.4691687822341919e-01</leafValues></_>
        <_>
          <internalNodes>
            0 -1 53 -1.5588867664337158e-01</internalNodes>
          <leafValues>
            7.6363891363143921e-01 -1.4540192484855652e-01</leafValues></_>
        <_>
          <internalNodes>
            0 -1 65 -1.4725048840045929e-01</internalNodes>
          <leafValues>
            7.6982796192169189e-01 -2.4044571816921234e-01</leafValues></_>
        <_>
          <internalNodes>
            0 -1 128 4.7710636863484979e-04</internalNodes>
          <leafValues>
            -2.2315821051597595e-01 6.2372291088104248e-01</leafValues></_>
        <_>
          <internalNodes>
            0 -1 85 -1.1931467056274414e-01</internalNodes>
          <leafValues>
            7.5471997261047363e-01 -1.6698661446571350e-01</leafValues></_>
        <_>
          <internalNodes>
            0 -1 158 1.7450077459216118e-02</internalNodes>
          <leafValues>
            -2.7912586927413940e-01 7.2471004724502563e-01</leafValues></_>
        <_>
          <internalNodes>
            0 -1 89 -6.6230073571205139e-04</internalNodes>
          <leafValues>
            -7.1152627468109131e-01 2.8043678402900696e-01</leafValues></_>
        <_>
          <internalNodes>
            0 -1 137 7.2601751890033484e-04</internalNodes>
          <leafValues>
            -3.8194447755813599e-01 4.5088201761245728e-01</leafValues></_>
        <_>
          <internalNodes>
            0 -1 8 -7.8322276473045349e-02</internalNodes>
          <leafValues>
            -9.1868174076080322e-01 1.8899081647396088e-01</leafValues></_></weakClassifiers></_>
    <!-- stage 6 -->
    <_>
      <maxWeakCount>7</maxWeakCount>
      <stageThreshold>-3.2845157384872437e-01</stageThreshold>
      <weakClassifiers>
        <_>
          <internalNodes>
            0 -1 16 1.5792132914066315e-01</internalNodes>
          <leafValues>
            3.7950137257575989e-01 -9.4871795177459717e-01</leafValues></_>
        <_>
          <internalNodes>
            0 -1 72 -1.7859578132629395e-01</internalNodes>
          <leafValues>
            8.4892362356185913e-01 -1.7936170101165771e-01</leafValues></_>
        <_>
          <internalNodes>
            0 -1 69 2.4575357139110565e-01</internalNodes>
          <leafValues>
            -2.7748179435729980e-01 8.5708266496658325e-01</leafValues></_>
        <_>
          <internalNodes>
            0 -1 175 4.6122289495542645e-04</internalNodes>
          <leafValues>
            2.6492041349411011e-01 -7.4843478202819824e-01</leafValues></_>
        <_>
          <internalNodes>
            0 -1 148 -3.3700728090479970e-04</internalNodes>
          <leafValues>
            5.2189171314239502e-01 -3.1591311097145081e-01</leafValues></_>
        <_>
          <internalNodes>
            0 -1 175 -2.5881192414090037e-04</internalNodes>
          <leafValues>
            -6.1201578378677368e-01 2.4074967205524445e-01</leafValues></_>
        <_>
          <internalNodes>
            0 -1 156 5.6508288253098726e-04</internalNodes>
          <leafValues>
            -2.6531609892845154e-01 5.1747417449951172e-01</leafValues></_></weakClassifiers></_>
    <!-- stage 7 -->
    <_>
      <maxWeakCount>8</maxWeakCount>
      <stageThreshold>-7.7622401714324951e-01</stageThreshold>
      <weakClassifiers>
        <_>
          <internalNodes>
            0 -1 39 7.2422571480274200e-02</internalNodes>
          <leafValues>
            5.7947020977735519e-02 8.4183675050735474e-01</leafValues></_>
        <_>
          <internalNodes>
            0 -1 118 3.1116524711251259e-02</internalNodes>
          <leafValues>
            -1.9184340536594391e-01 8.2566052675247192e-01</leafValues></_>
        <_>
          <internalNodes>
            0 -1 99 9.0251110494136810e-02</internalNodes>
          <leafValues>
            -1.6391624510288239e-01 6.4120650291442871e-01</leafValues></_>
        <_>
          <internalNodes>
            0 -1 90 -9.9345065653324127e-02</internalNodes>
          <leafValues>
            6.5442389249801636e-01 -3.2220131158828735e-01</leafValues></_>
        <_>
          <internalNodes>
            0 -1 121 3.3754248172044754e-02</internalNodes>
          <leafValues>
            -2.6557487249374390e-01 5.1662153005599976e-01</leafValues></_>
        <_>
          <internalNodes>
            0 -1 22 7.1576938033103943e-02</internalNodes>
          <leafValues>
            -2.7621197700500488e-01 7.8441327810287476e-01</leafValues></_>
        <_>
          <internalNodes>
            0 -1 132 -1.4467451255768538e-03</internalNodes>
          <leafValues>
            4.9909678101539612e-01 -2.1852292120456696e-01</leafValues></_>
        <_>
          <internalNodes>
            0 -1 47 1.4594598114490509e-01</internalNodes>
          <leafValues>
            -2.0102307200431824e-01 7.6045286655426025e-01</leafValues></_></weakClassifiers></_>
    <!-- stage 8 -->
    <_>
      <maxWeakCount>16</maxWeakCount>
      <stageThreshold>-1.1684643030166626e+00</stageThreshold>
      <weakClassifiers>
        <_>
          <internalNodes>
            0 -1 172 -2.7750903973355889e-04</internalNodes>
          <leafValues>
            -3.5123041272163391e-01 4.8308759927749634e-01</leafValues></_>
        <_>
          <internalNodes>
            0 -1 171 2.5323333102278411e-04</internalNodes>
          <leafValues>
            2.6872825622558594e-01 -6.1442798376083374e-01</leafValues></_>
        <_>
          <internalNodes>
            0 -1 36 -3.6178180575370789e-01</internalNodes>
          <leafValues>
            8.6584514379501343e-01 -1.6456967592239380e-01</leafValues></_>
        <_>
          <internalNodes>
            0 -1 142 1.4031368773430586e-03</internalNodes>
          <leafValues>
            -4.4903069734573364e-01 3.9035525918006897e-01</leafValues></_>
        <_>
          <internalNodes>
            0 -1 73 9.1749493731185794e-04</internalNodes>
          <leafValues>
            2.1541616320610046e-01 -7.3010045289993286e-01</leafValues></_>
        <_>
          <internalNodes>
            0 -1 62 -1.0828707308974117e-04</internalNodes>
          <leafValues>
            -5.0204825401306152e-01 2.1162198483943939e-01</leafValues></_>
        <_>
          <internalNodes>
            0 -1 93 2.1404892206192017e-01</internalNodes>
          <leafValues>
            -2.0713301002979279e-01 8.2385754585266113e-01</leafValues></_>
        <_>
          <internalNodes>
            0 -1 76 -1.0224342986475676e-04</internalNodes>
          <leafValues>
            -5.9472751617431641e-01 3.0858847498893738e-01</leafValues></_>
        <_>
          <internalNodes>
            0 -1 134 -6.8536703474819660e-04</internalNodes>
          <leafValues>
            6.0077100992202759e-01 -1.7819702625274658e-01</leafValues></_>
        <_>
          <internalNodes>
            0 -1 139 -1.6911799320951104e-03</internalNodes>
          <leafValues>
            6.4789086580276489e-01 -2.1593308448791504e-01</leafValues></_>
        <_>
          <internalNodes>
            0 -1 140 -4.5279672485776246e-04</internalNodes>
          <leafValues>
            5.2597594261169434e-01 -2.2276575863361359e-01</leafValues></_>
        <_>
          <internalNodes>
            0 -1 123 -1.9124442711472511e-02</internalNodes>
          <leafValues>
            6.4430576562881470e-01 -1.8015901744365692e-01</leafValues></_>
        <_>
          <internalNodes>
            0 -1 21 2.7954082936048508e-02</internalNodes>
          <leafValues>
            -2.4598011374473572e-01 6.0953390598297119e-01</leafValues></_>
        <_>
          <internalNodes>
            0 -1 24 3.4340769052505493e-01</internalNodes>
          <leafValues>
            -2.1806614100933075e-01 6.1707782745361328e-01</leafValues></_>
        <_>
          <internalNodes>
            0 -1 108 4.6833001077175140e-02</internalNodes>
          <leafValues>
            -2.1734616160392761e-01 5.8158230781555176e-01</leafValues></_>
        <_>
          <internalNodes>
            0 -1 35 -1.4631126821041107e-01</internalNodes>
          <leafValues>
            5.8984535932540894e-01 -2.2702112793922424e-01</leafValues></_></weakClassifiers></_>
    <!-- stage 9 -->
    <_>
      <maxWeakCount>14</maxWeakCount>
      <stageThreshold>-8.9196586608886719e-01</stageThreshold>
      <weakClassifiers>
        <_>
          <internalNodes>
            0 -1 178 -1.9310496281832457e-04</internalNodes>
          <leafValues>
            -3.6430317163467407e-01 4.6095716953277588e-01</leafValues></_>
        <_>
          <internalNodes>
            0 -1 169 3.4347976907156408e-04</internalNodes>
          <leafValues>
            2.4294044077396393e-01 -5.4024016857147217e-01</leafValues></_>
        <_>
          <internalNodes>
            0 -1 98 1.6258552204817533e-04</internalNodes>
          <leafValues>
            1.8942543864250183e-01 -5.3527235984802246e-01</leafValues></_>
        <_>
          <internalNodes>
            0 -1 124 -8.2376436330378056e-04</internalNodes>
          <leafValues>
            4.2465013265609741e-01 -2.5982913374900818e-01</leafValues></_>
        <_>
          <internalNodes>
            0 -1 159 -1.6918181790970266e-04</internalNodes>
          <leafValues>
            -4.3743023276329041e-01 2.4007886648178101e-01</leafValues></_>
        <_>
          <internalNodes>
            0 -1 28 -7.7227234840393066e-02</internalNodes>
          <leafValues>
            6.7394906282424927e-01 -2.4953228235244751e-01</leafValues></_>
        <_>
          <internalNodes>
            0 -1 164 -1.7387216212227941e-04</internalNodes>
          <leafValues>
            -5.5934697389602661e-01 2.7841696143150330e-01</leafValues></_>
        <_>
          <internalNodes>
            0 -1 115 -1.1620742734521627e-03</internalNodes>
          <leafValues>
            -7.7878630161285400e-01 1.1907965689897537e-01</leafValues></_>
        <_>
          <internalNodes>
            0 -1 143 7.3233945295214653e-04</internalNodes>
          <leafValues>
            1.4148607850074768e-01 -6.7014992237091064e-01</leafValues></_>
        <_>
          <internalNodes>
            0 -1 34 5.9853956103324890e-02</internalNodes>
          <leafValues>
            -1.2172816693782806e-01 9.1947877407073975e-01</leafValues></_>
        <_>
          <internalNodes>
            0 -1 114 -2.4444077163934708e-02</internalNodes>
          <leafValues>
            6.2580382823944092e-01 -1.7133723199367523e-01</leafValues></_>
        <_>
          <internalNodes>
            0 -1 20 1.2140028178691864e-01</internalNodes>
          <leafValues>
            -2.6130607724189758e-01 6.2529587745666504e-01</leafValues></_>
        <_>
          <internalNodes>
            0 -1 3 9.5574408769607544e-02</internalNodes>
          <leafValues>
            -2.1441280841827393e-01 5.3344935178756714e-01</leafValues></_>
        <_>
          <internalNodes>
            0 -1 181 -1.7387518892064691e-04</internalNodes>
          <leafValues>
            -4.4968044757843018e-01 2.7967295050621033e-01</leafValues></_></weakClassifiers></_>
    <!-- stage 10 -->
    <_>
      <maxWeakCount>16</maxWeakCount>
      <stageThreshold>-9.2838221788406372e-01</stageThreshold>
      <weakClassifiers>
        <_>
          <internalNodes>
            0 -1 104 -1.8449375056661665e-04</internalNodes>
          <leafValues>
            -2.8000000119209290e-01 4.5739129185676575e-01</leafValues></_>
        <_>
          <internalNodes>
            0 -1 192 -2.2292835637927055e-03</internalNodes>
          <leafValues>
            6.0518097877502441e-01 -1.7530100047588348e-01</leafValues></_>
        <_>
          <internalNodes>
            0 -1 162 -9.1979739954695106e-04</internalNodes>
          <leafValues>
            -5.4214072227478027e-01 1.9631959497928619e-01</leafValues></_>
        <_>
          <internalNodes>
            0 -1 43 2.2485831752419472e-02</internalNodes>
          <leafValues>
            -1.8797940015792847e-01 5.9584116935729980e-01</leafValues></_>
        <_>
          <internalNodes>
            0 -1 151 5.6204514112323523e-04</internalNodes>
          <leafValues>
            -3.3708709478378296e-01 3.2431837916374207e-01</leafValues></_>
        <_>
          <internalNodes>
            0 -1 80 8.2463957369327545e-05</internalNodes>
          <leafValues>
            1.9097074866294861e-01 -5.5960124731063843e-01</leafValues></_>
        <_>
          <internalNodes>
            0 -1 144 -1.8569404259324074e-02</internalNodes>
          <leafValues>
            -7.5032651424407959e-01 1.2051821500062943e-01</leafValues></_>
        <_>
          <internalNodes>
            0 -1 126 -9.4762817025184631e-03</internalNodes>
          <leafValues>
            5.6529015302658081e-01 -2.1173611283302307e-01</leafValues></_>
        <_>
          <internalNodes>
            0 -1 14 7.0794627070426941e-02</internalNodes>
          <leafValues>
            -2.6926875114440918e-01 5.9831440448760986e-01</leafValues></_>
        <_>
          <internalNodes>
            0 -1 146 -8.3313666982576251e-04</internalNodes>
          <leafValues>
            6.1489653587341309e-01 -1.6995511949062347e-01</leafValues></_>
        <_>
          <internalNodes>
            0 -1 6 7.0653539150953293e-03</internalNodes>
          <leafValues>
            -2.5263184309005737e-01 4.8599916696548462e-01</leafValues></_>
        <_>
          <internalNodes>
            0 -1 166 7.8311742981895804e-04</internalNodes>
          <leafValues>
            1.4935471117496490e-01 -7.4873709678649902e-01</leafValues></_>
        <_>
          <internalNodes>
            0 -1 129 4.2603211477398872e-04</internalNodes>
          <leafValues>
            -2.5942131876945496e-01 3.9894556999206543e-01</leafValues></_>
        <_>
          <internalNodes>
            0 -1 129 -8.9835526887327433e-04</internalNodes>
          <leafValues>
            7.1024692058563232e-01 -1.5858213603496552e-01</leafValues></_>
        <_>
          <internalNodes>
            0 -1 61 -1.4139331877231598e-02</internalNodes>
          <leafValues>
            -9.2601841688156128e-01 1.3251212239265442e-01</leafValues></_>
        <_>
          <internalNodes>
            0 -1 42 -1.6777313430793583e-04</internalNodes>
          <leafValues>
            -5.4514390230178833e-01 1.6795346140861511e-01</leafValues></_></weakClassifiers></_>
    <!-- stage 11 -->
    <_>
      <maxWeakCount>16</maxWeakCount>
      <stageThreshold>-9.6799165010452271e-01</stageThreshold>
      <weakClassifiers>
        <_>
          <internalNodes>
            0 -1 57 -3.2036870718002319e-02</internalNodes>
          <leafValues>
            -7.7611941099166870e-01 3.4379264712333679e-01</leafValues></_>
        <_>
          <internalNodes>
            0 -1 160 1.8524544429965317e-04</internalNodes>
          <leafValues>
            2.4725744128227234e-01 -4.7609841823577881e-01</leafValues></_>
        <_>
          <internalNodes>
            0 -1 51 -3.2319977879524231e-01</internalNodes>
          <leafValues>
            7.9943382740020752e-01 -1.7280350625514984e-01</leafValues></_>
        <_>
          <internalNodes>
            0 -1 185 -2.6719973539002240e-04</internalNodes>
          <leafValues>
            -6.0641503334045410e-01 1.8580603599548340e-01</leafValues></_>
        <_>
          <internalNodes>
            0 -1 165 -9.6284085884690285e-04</internalNodes>
          <leafValues>
            -4.7365921735763550e-01 2.8354015946388245e-01</leafValues></_>
        <_>
          <internalNodes>
            0 -1 152 3.0662844073958695e-04</internalNodes>
          <leafValues>
            -2.3933891952037811e-01 4.5062643289566040e-01</leafValues></_>
        <_>
          <internalNodes>
            0 -1 157 1.2569599784910679e-03</internalNodes>
          <leafValues>
            -2.6579716801643372e-01 3.5041749477386475e-01</leafValues></_>
        <_>
          <internalNodes>
            0 -1 131 -1.1632801592350006e-01</internalNodes>
          <leafValues>
            6.5343719720840454e-01 -1.4990659058094025e-01</leafValues></_>
        <_>
          <internalNodes>
            0 -1 49 1.4014977216720581e-01</internalNodes>
          <leafValues>
            -1.8073365092277527e-01 7.2438859939575195e-01</leafValues></_>
        <_>
          <internalNodes>
            0 -1 183 1.7027936875820160e-02</internalNodes>
          <leafValues>
            -1.2570120394229889e-01 6.4868283271789551e-01</leafValues></_>
        <_>
          <internalNodes>
            0 -1 10 2.7768723666667938e-02</internalNodes>
          <leafValues>
            2.3908311128616333e-01 -5.3964322805404663e-01</leafValues></_>
        <_>
          <internalNodes>
            0 -1 184 1.8990195530932397e-04</internalNodes>
          <leafValues>
            1.6261591017246246e-01 -5.7594549655914307e-01</leafValues></_>
        <_>
          <internalNodes>
            0 -1 29 -7.4836514890193939e-02</internalNodes>
          <leafValues>
            -8.4560233354568481e-01 9.4937875866889954e-02</leafValues></_>
        <_>
          <internalNodes>
            0 -1 191 1.9382827449589968e-03</internalNodes>
          <leafValues>
            -2.0116932690143585e-01 5.3996783494949341e-01</leafValues></_>
        <_>
          <internalNodes>
            0 -1 33 2.0043735275976360e-04</internalNodes>
          <leafValues>
            2.2102156281471252e-01 -4.8601660132408142e-01</leafValues></_>
        <_>
          <internalNodes>
            0 -1 7 5.7694371789693832e-02</internalNodes>
          <leafValues>
            -1.4501269161701202e-01 7.4998813867568970e-01</leafValues></_></weakClassifiers></_>
    <!-- stage 12 -->
    <_>
      <maxWeakCount>16</maxWeakCount>
      <stageThreshold>-9.1839104890823364e-01</stageThreshold>
      <weakClassifiers>
        <_>
          <internalNodes>
            0 -1 56 -3.5952206235378981e-04</internalNodes>
          <leafValues>
            -4.7058823704719543e-01 3.9759036898612976e-01</leafValues></_>
        <_>
          <internalNodes>
            0 -1 26 -3.5878920555114746e-01</internalNodes>
          <leafValues>
            7.7056586742401123e-01 -1.3913130760192871e-01</leafValues></_>
        <_>
          <internalNodes>
            0 -1 138 1.3531203148886561e-03</internalNodes>
          <leafValues>
            -1.4177441596984863e-01 5.8777695894241333e-01</leafValues></_>
        <_>
          <internalNodes>
            0 -1 95 -1.0376593470573425e-01</internalNodes>
          <leafValues>
            5.7340049743652344e-01 -1.5645150840282440e-01</leafValues></_>
        <_>
          <internalNodes>
            0 -1 18 2.4526479840278625e-01</internalNodes>
          <leafValues>
            -2.0681677758693695e-01 5.1745444536209106e-01</leafValues></_>
        <_>
          <internalNodes>
            0 -1 88 -8.0298304557800293e-02</internalNodes>
          <leafValues>
            5.2395623922348022e-01 -2.1963621675968170e-01</leafValues></_>
        <_>
          <internalNodes>
            0 -1 176 -1.6375948325730860e-04</internalNodes>
          <leafValues>
            -4.3338835239410400e-01 2.5771453976631165e-01</leafValues></_>
        <_>
          <internalNodes>
            0 -1 81 -5.0487124099163339e-05</internalNodes>
          <leafValues>
            -4.7623002529144287e-01 1.5776573121547699e-01</leafValues></_>
        <_>
          <internalNodes>
            0 -1 147 4.8293382860720158e-04</internalNodes>
          <leafValues>
            -1.8033213913440704e-01 4.8676103353500366e-01</leafValues></_>
        <_>
          <internalNodes>
            0 -1 149 -9.3147502047941089e-04</internalNodes>
          <leafValues>
            4.4829544425010681e-01 -1.9473823904991150e-01</leafValues></_>
        <_>
          <internalNodes>
            0 -1 4 2.3701789323240519e-03</internalNodes>
          <leafValues>
            -2.0442020893096924e-01 4.7516894340515137e-01</leafValues></_>
        <_>
          <internalNodes>
            0 -1 177 6.6783024522010237e-05</internalNodes>
          <leafValues>
            2.0323392748832703e-01 -4.4046789407730103e-01</leafValues></_>
        <_>
          <internalNodes>
            0 -1 82 6.3876233994960785e-02</internalNodes>
          <leafValues>
            -2.3964610695838928e-01 4.2632991075515747e-01</leafValues></_>
        <_>
          <internalNodes>
            0 -1 113 8.3993645384907722e-03</internalNodes>
          <leafValues>
            -3.0336540937423706e-01 5.4870849847793579e-01</leafValues></_>
        <_>
          <internalNodes>
            0 -1 78 -1.7202009621541947e-04</internalNodes>
          <leafValues>
            -4.2609465122222900e-01 2.3484840989112854e-01</leafValues></_>
        <_>
          <internalNodes>
            0 -1 55 3.3110685646533966e-02</internalNodes>
          <leafValues>
            -2.3572129011154175e-01 3.9073523879051208e-01</leafValues></_></weakClassifiers></_>
    <!-- stage 13 -->
    <_>
      <maxWeakCount>20</maxWeakCount>
      <stageThreshold>-1.1396901607513428e+00</stageThreshold>
      <weakClassifiers>
        <_>
          <internalNodes>
            0 -1 74 -5.5821798741817474e-04</internalNodes>
          <leafValues>
            -5.3125000000000000e-01 3.9880952239036560e-01</leafValues></_>
        <_>
          <internalNodes>
            0 -1 112 4.9218889325857162e-02</internalNodes>
          <leafValues>
            -1.5182892978191376e-01 7.2113335132598877e-01</leafValues></_>
        <_>
          <internalNodes>
            0 -1 97 1.2214770168066025e-01</internalNodes>
          <leafValues>
            -1.5644827485084534e-01 7.6338237524032593e-01</leafValues></_>
        <_>
          <internalNodes>
            0 -1 91 7.8771844506263733e-02</internalNodes>
          <leafValues>
            -1.0022930055856705e-01 7.9647952318191528e-01</leafValues></_>
        <_>
          <internalNodes>
            0 -1 92 -6.7413166165351868e-02</internalNodes>
          <leafValues>
            6.3070696592330933e-01 -1.7961844801902771e-01</leafValues></_>
        <_>
          <internalNodes>
            0 -1 13 2.1735188364982605e-01</internalNodes>
          <leafValues>
            -2.2843283414840698e-01 4.7484943270683289e-01</leafValues></_>
        <_>
          <internalNodes>
            0 -1 109 5.0378657877445221e-02</internalNodes>
          <leafValues>
            -1.7100799083709717e-01 5.7506000995635986e-01</leafValues></_>
        <_>
          <internalNodes>
            0 -1 186 -6.3456376665271819e-05</internalNodes>
          <leafValues>
            -4.0532985329627991e-01 2.6472505927085876e-01</leafValues></_>
        <_>
          <internalNodes>
            0 -1 64 1.6084486246109009e-01</internalNodes>
          <leafValues>
            -1.7306777834892273e-01 6.1767894029617310e-01</leafValues></_>
        <_>
          <internalNodes>
            0 -1 161 -2.6140961563214660e-04</internalNodes>
          <leafValues>
            -6.2278968095779419e-01 2.1393914520740509e-01</leafValues></_>
        <_>
          <internalNodes>
            0 -1 190 -3.9105117321014404e-03</internalNodes>
          <leafValues>
            3.5766896605491638e-01 -2.6534420251846313e-01</leafValues></_>
        <_>
          <internalNodes>
            0 -1 105 2.1307509392499924e-02</internalNodes>
          <leafValues>
            -1.6257309913635254e-01 5.8499181270599365e-01</leafValues></_>
        <_>
          <internalNodes>
            0 -1 41 3.0281825456768274e-04</internalNodes>
          <leafValues>
            2.8003770112991333e-01 -4.5287933945655823e-01</leafValues></_>
        <_>
          <internalNodes>
            0 -1 25 -3.2924735546112061e-01</internalNodes>
          <leafValues>
            8.0182558298110962e-01 -1.3499695062637329e-01</leafValues></_>
        <_>
          <internalNodes>
            0 -1 103 -3.8185848388820887e-03</internalNodes>
          <leafValues>
            3.7415948510169983e-01 -3.2180452346801758e-01</leafValues></_>
        <_>
          <internalNodes>
            0 -1 187 1.1063177953474224e-04</internalNodes>
          <leafValues>
            1.8108314275741577e-01 -5.4001575708389282e-01</leafValues></_>
        <_>
          <internalNodes>
            0 -1 116 -1.7336662858724594e-02</internalNodes>
          <leafValues>
            -8.2227587699890137e-01 1.2331377714872360e-01</leafValues></_>
        <_>
          <internalNodes>
            0 -1 84 1.1730990081559867e-04</internalNodes>
          <leafValues>
            2.0184624195098877e-01 -4.4373932480812073e-01</leafValues></_>
        <_>
          <internalNodes>
            0 -1 127 -2.0102038979530334e-03</internalNodes>
          <leafValues>
            5.3635257482528687e-01 -1.7432604730129242e-01</leafValues></_>
        <_>
          <internalNodes>
            0 -1 45 1.8970818928210065e-05</internalNodes>
          <leafValues>
            2.5296247005462646e-01 -3.4599733352661133e-01</leafValues></_></weakClassifiers></_>
    <!-- stage 14 -->
    <_>
      <maxWeakCount>20</maxWeakCount>
      <stageThreshold>-9.3456262350082397e-01</stageThreshold>
      <weakClassifiers>
        <_>
          <internalNodes>
            0 -1 130 5.4658954031765461e-03</internalNodes>
          <leafValues>
            3.4468665719032288e-01 -8.0303031206130981e-01</leafValues></_>
        <_>
          <internalNodes>
            0 -1 128 5.2633386803790927e-04</internalNodes>
          <leafValues>
            -1.7441657185554504e-01 4.9049866199493408e-01</leafValues></_>
        <_>
          <internalNodes>
            0 -1 128 -5.0722627202048898e-04</internalNodes>
          <leafValues>
            5.1685374975204468e-01 -1.9348150491714478e-01</leafValues></_>
        <_>
          <internalNodes>
            0 -1 96 8.4434585005510598e-05</internalNodes>
          <leafValues>
            2.1562454104423523e-01 -4.1071778535842896e-01</leafValues></_>
        <_>
          <internalNodes>
            0 -1 0 -1.5826653689146042e-02</internalNodes>
          <leafValues>
            -6.9316065311431885e-01 1.3217227160930634e-01</leafValues></_>
        <_>
          <internalNodes>
            0 -1 66 1.4741337299346924e-01</internalNodes>
          <leafValues>
            -2.2665949165821075e-01 5.9328567981719971e-01</leafValues></_>
        <_>
          <internalNodes>
            0 -1 189 5.4746689274907112e-03</internalNodes>
          <leafValues>
            -2.9019582271575928e-01 4.8706102371215820e-01</leafValues></_>
        <_>
          <internalNodes>
            0 -1 2 -1.6162621974945068e-01</internalNodes>
          <leafValues>
            -8.4106504917144775e-01 1.6125081479549408e-01</leafValues></_>
        <_>
          <internalNodes>
            0 -1 174 -2.3048337607178837e-04</internalNodes>
          <leafValues>
            -4.4885963201522827e-01 1.7266063392162323e-01</leafValues></_>
        <_>
          <internalNodes>
            0 -1 141 1.2854526285082102e-03</internalNodes>
          <leafValues>
            -2.2432251274585724e-01 5.1711744070053101e-01</leafValues></_>
        <_>
          <internalNodes>
            0 -1 1 1.9940444827079773e-01</internalNodes>
          <leafValues>
            -1.8662491440773010e-01 5.7202219963073730e-01</leafValues></_>
        <_>
          <internalNodes>
            0 -1 44 -3.2360077602788806e-04</internalNodes>
          <leafValues>
            -4.2792025208473206e-01 2.7477720379829407e-01</leafValues></_>
        <_>
          <internalNodes>
            0 -1 30 1.9801733287749812e-05</internalNodes>
          <leafValues>
            2.7149155735969543e-01 -3.5726791620254517e-01</leafValues></_>
        <_>
          <internalNodes>
            0 -1 120 6.7889206111431122e-02</internalNodes>
          <leafValues>
            1.3102006912231445e-01 -6.9306451082229614e-01</leafValues></_>
        <_>
          <internalNodes>
            0 -1 182 -6.9438610807992518e-05</internalNodes>
          <leafValues>
            -5.0137370824813843e-01 1.8404887616634369e-01</leafValues></_>
        <_>
          <internalNodes>
            0 -1 63 -3.9123086025938392e-05</internalNodes>
          <leafValues>
            -4.7991970181465149e-01 1.9671094417572021e-01</leafValues></_>
        <_>
          <internalNodes>
            0 -1 107 4.0853690356016159e-02</internalNodes>
          <leafValues>
            -1.5648399293422699e-01 7.1093362569808960e-01</leafValues></_>
        <_>
          <internalNodes>
            0 -1 12 -1.5920484438538551e-02</internalNodes>
          <leafValues>
            7.0871782302856445e-01 -1.3606782257556915e-01</leafValues></_>
        <_>
          <internalNodes>
            0 -1 125 2.6256870478391647e-02</internalNodes>
          <leafValues>
            -1.3940078020095825e-01 6.2260508537292480e-01</leafValues></_>
        <_>
          <internalNodes>
            0 -1 188 -2.1189280232647434e-05</internalNodes>
          <leafValues>
            -3.9355513453483582e-01 2.8818139433860779e-01</leafValues></_></weakClassifiers></_>
    <!-- stage 15 -->
    <_>
      <maxWeakCount>20</maxWeakCount>
      <stageThreshold>-8.9718788862228394e-01</stageThreshold>
      <weakClassifiers>
        <_>
          <internalNodes>
            0 -1 163 1.5402726130560040e-03</internalNodes>
          <leafValues>
            4.2372882366180420e-01 -3.4626039862632751e-01</leafValues></_>
        <_>
          <internalNodes>
            0 -1 48 1.0072886943817139e-01</internalNodes>
          <leafValues>
            -1.2625192105770111e-01 6.3897985219955444e-01</leafValues></_>
        <_>
          <internalNodes>
            0 -1 136 1.5603321662638336e-04</internalNodes>
          <leafValues>
            -3.3192998170852661e-01 3.2931795716285706e-01</leafValues></_>
        <_>
          <internalNodes>
            0 -1 32 -3.7500849430216476e-05</internalNodes>
          <leafValues>
            -4.4679844379425049e-01 1.7672048509120941e-01</leafValues></_>
        <_>
          <internalNodes>
            0 -1 31 1.9797458662651479e-05</internalNodes>
          <leafValues>
            2.4040336906909943e-01 -3.8171514868736267e-01</leafValues></_>
        <_>
          <internalNodes>
            0 -1 117 3.4685410559177399e-02</internalNodes>
          <leafValues>
            -1.9672024250030518e-01 5.2427756786346436e-01</leafValues></_>
        <_>
          <internalNodes>
            0 -1 23 5.9994421899318695e-02</internalNodes>
          <leafValues>
            -8.8964968919754028e-02 7.0568943023681641e-01</leafValues></_>
        <_>
          <internalNodes>
            0 -1 179 5.7111785281449556e-04</internalNodes>
          <leafValues>
            1.8782578408718109e-01 -5.5713421106338501e-01</leafValues></_>
        <_>
          <internalNodes>
            0 -1 9 3.4286096692085266e-02</internalNodes>
          <leafValues>
            1.6780197620391846e-01 -5.3001260757446289e-01</leafValues></_>
        <_>
          <internalNodes>
            0 -1 11 7.9640821786597371e-04</internalNodes>
          <leafValues>
            -1.8889342248439789e-01 4.2172512412071228e-01</leafValues></_>
        <_>
          <internalNodes>
            0 -1 122 1.0401491308584809e-03</internalNodes>
          <leafValues>
            -1.8045938014984131e-01 4.7526571154594421e-01</leafValues></_>
        <_>
          <internalNodes>
            0 -1 145 -7.2967313462868333e-04</internalNodes>
          <leafValues>
            4.4389835000038147e-01 -1.8357588350772858e-01</leafValues></_>
        <_>
          <internalNodes>
            0 -1 46 1.1430631857365370e-03</internalNodes>
          <leafValues>
            2.0112915337085724e-01 -4.6718463301658630e-01</leafValues></_>
        <_>
          <internalNodes>
            0 -1 119 2.8445120551623404e-04</internalNodes>
          <leafValues>
            1.6643735766410828e-01 -4.3905881047248840e-01</leafValues></_>
        <_>
          <internalNodes>
            0 -1 168 1.2784022837877274e-02</internalNodes>
          <leafValues>
            -1.5710219740867615e-01 6.2352865934371948e-01</leafValues></_>
        <_>
          <internalNodes>
            0 -1 133 3.8353336276486516e-04</internalNodes>
          <leafValues>
            -1.5238560736179352e-01 4.6796134114265442e-01</leafValues></_>
        <_>
          <internalNodes>
            0 -1 40 -1.6491745191160589e-04</internalNodes>
          <leafValues>
            -4.1836115717887878e-01 1.7612054944038391e-01</leafValues></_>
        <_>
          <internalNodes>
            0 -1 155 -4.4017232721671462e-04</internalNodes>
          <leafValues>
            3.6783254146575928e-01 -2.1714316308498383e-01</leafValues></_>
        <_>
          <internalNodes>
            0 -1 153 2.6640421152114868e-01</internalNodes>
          <leafValues>
            -1.5461833775043488e-01 5.1439195871353149e-01</leafValues></_>
        <_>
          <internalNodes>
            0 -1 134 -3.1484779901802540e-04</internalNodes>
          <leafValues>
            3.2435303926467896e-01 -2.4886779487133026e-01</leafValues></_></weakClassifiers></_></stages>
  <features>
    <_>
      <rects>
        <_>
          0 0 1 24 -1.</_>
        <_>
          0 12 1 12 2.</_></rects>
      <tilted>0</tilted></_>
    <_>
      <rects>
        <_>
          0 3 24 21 -1.</_>
        <_>
          0 10 24 7 3.</_></rects>
      <tilted>0</tilted></_>
    <_>
      <rects>
        <_>
          0 4 28 22 -1.</_>
        <_>
          0 15 28 11 2.</_></rects>
      <tilted>0</tilted></_>
    <_>
      <rects>
        <_>
          0 5 20 17 -1.</_>
        <_>
          10 5 10 17 2.</_></rects>
      <tilted>0</tilted></_>
    <_>
      <rects>
        <_>
          0 6 2 20 -1.</_>
        <_>
          1 6 1 20 2.</_></rects>
      <tilted>0</tilted></_>
    <_>
      <rects>
        <_>
          0 8 21 5 -1.</_>
        <_>
          7 8 7 5 3.</_></rects>
      <tilted>0</tilted></_>
    <_>
      <rects>
        <_>
          0 11 9 16 -1.</_>
        <_>
          3 11 3 16 3.</_></rects>
      <tilted>0</tilted></_>
    <_>
      <rects>
        <_>
          0 11 21 3 -1.</_>
        <_>
          7 11 7 3 3.</_></rects>
      <tilted>0</tilted></_>
    <_>
      <rects>
        <_>
          0 11 30 9 -1.</_>
        <_>
          15 11 15 9 2.</_></rects>
      <tilted>0</tilted></_>
    <_>
      <rects>
        <_>
          0 11 27 8 -1.</_>
        <_>
          0 15 27 4 2.</_></rects>
      <tilted>0</tilted></_>
    <_>
      <rects>
        <_>
          0 11 30 8 -1.</_>
        <_>
          0 15 30 4 2.</_></rects>
      <tilted>0</tilted></_>
    <_>
      <rects>
        <_>
          0 14 3 8 -1.</_>
        <_>
          1 14 1 8 3.</_></rects>
      <tilted>0</tilted></_>
    <_>
      <rects>
        <_>
          0 20 21 1 -1.</_>
        <_>
          7 20 7 1 3.</_></rects>
      <tilted>0</tilted></_>
    <_>
      <rects>
        <_>
          1 1 26 24 -1.</_>
        <_>
          1 9 26 8 3.</_></rects>
      <tilted>0</tilted></_>
    <_>
      <rects>
        <_>
          1 9 21 5 -1.</_>
        <_>
          8 9 7 5 3.</_></rects>
      <tilted>0</tilted></_>
    <_>
      <rects>
        <_>
          1 10 14 12 -1.</_>
        <_>
          1 14 14 4 3.</_></rects>
      <tilted>0</tilted></_>
    <_>
      <rects>
        <_>
          1 10 28 12 -1.</_>
        <_>
          15 10 14 12 2.</_></rects>
      <tilted>0</tilted></_>
    <_>
      <rects>
        <_>
          2 5 26 20 -1.</_>
        <_>
          15 5 13 20 2.</_></rects>
      <tilted>0</tilted></_>
    <_>
      <rects>
        <_>
          2 6 26 21 -1.</_>
        <_>
          2 13 26 7 3.</_></rects>
      <tilted>0</tilted></_>
    <_>
      <rects>
        <_>
          2 8 26 16 -1.</_>
        <_>
          15 8 13 16 2.</_></rects>
      <tilted>0</tilted></_>
    <_>
      <rects>
        <_>
          2 8 20 15 -1.</_>
        <_>
          2 13 20 5 3.</_></rects>
      <tilted>0</tilted></_>
    <_>
      <rects>
        <_>
          2 10 18 3 -1.</_>
        <_>
          8 10 6 3 3.</_></rects>
      <tilted>0</tilted></_>
    <_>
      <rects>
        <_>
          2 17 22 4 -1.</_>
        <_>
          13 17 11 4 2.</_></rects>
      <tilted>0</tilted></_>
    <_>
      <rects>
        <_>
          2 18 20 3 -1.</_>
        <_>
          12 18 10 3 2.</_></rects>
      <tilted>0</tilted></_>
    <_>
      <rects>
        <_>
          3 1 27 27 -1.</_>
        <_>
          3 10 27 9 3.</_></rects>
      <tilted>0</tilted></_>
    <_>
      <rects>
        <_>
          3 7 24 16 -1.</_>
        <_>
          3 7 12 8 2.</_>
        <_>
          15 15 12 8 2.</_></rects>
      <tilted>0</tilted></_>
    <_>
      <rects>
        <_>
          3 7 24 18 -1.</_>
        <_>
          3 7 12 9 2.</_>
        <_>
          15 16 12 9 2.</_></rects>
      <tilted>0</tilted></_>
    <_>
      <rects>
        <_>
          3 7 24 20 -1.</_>
        <_>
          3 7 12 10 2.</_>
        <_>
          15 17 12 10 2.</_></rects>
      <tilted>0</tilted></_>
    <_>
      <rects>
        <_>
          3 7 20 10 -1.</_>
        <_>
          3 12 20 5 2.</_></rects>
      <tilted>0</tilted></_>
    <_>
      <rects>
        <_>
          3 9 23 12 -1.</_>
        <_>
          3 15 23 6 2.</_></rects>
      <tilted>0</tilted></_>
    <_>
      <rects>
        <_>
          3 13 1 2 -1.</_>
        <_>
          3 14 1 1 2.</_></rects>
      <tilted>0</tilted></_>
    <_>
      <rects>
        <_>
          3 15 2 1 -1.</_>
        <_>
          4 15 1 1 2.</_></rects>
      <tilted>0</tilted></_>
    <_>
      <rects>
        <_>
          3 15 3 2 -1.</_>
        <_>
          4 15 1 2 3.</_></rects>
      <tilted>0</tilted></_>
    <_>
      <rects>
        <_>
          3 16 4 2 -1.</_>
        <_>
          5 16 2 2 2.</_></rects>
      <tilted>0</tilted></_>
    <_>
      <rects>
        <_>
          3 18 24 2 -1.</_>
        <_>
          15 18 12 2 2.</_></rects>
      <tilted>0</tilted></_>
    <_>
      <rects>
        <_>
          4 2 18 22 -1.</_>
        <_>
          4 2 9 11 2.</_>
        <_>
          13 13 9 11 2.</_></rects>
      <tilted>0</tilted></_>
    <_>
      <rects>
        <_>
          4 5 24 20 -1.</_>
        <_>
          4 5 12 10 2.</_>
        <_>
          16 15 12 10 2.</_></rects>
      <tilted>0</tilted></_>
    <_>
      <rects>
        <_>
          4 5 23 22 -1.</_>
        <_>
          4 16 23 11 2.</_></rects>
      <tilted>0</tilted></_>
    <_>
      <rects>
        <_>
          4 8 22 14 -1.</_>
        <_>
          4 8 11 7 2.</_>
        <_>
          15 15 11 7 2.</_></rects>
      <tilted>0</tilted></_>
    <_>
      <rects>
        <_>
          4 10 24 3 -1.</_>
        <_>
          16 10 12 3 2.</_></rects>
      <tilted>0</tilted></_>
    <_>
      <rects>
        <_>
          4 11 3 5 -1.</_>
        <_>
          5 11 1 5 3.</_></rects>
      <tilted>0</tilted></_>
    <_>
      <rects>
        <_>
          4 13 2 4 -1.</_>
        <_>
          4 15 2 2 2.</_></rects>
      <tilted>0</tilted></_>
    <_>
      <rects>
        <_>
          4 14 3 4 -1.</_>
        <_>
          5 14 1 4 3.</_></rects>
      <tilted>0</tilted></_>
    <_>
      <rects>
        <_>
          4 16 24 4 -1.</_>
        <_>
          4 18 24 2 2.</_></rects>
      <tilted>0</tilted></_>
    <_>
      <rects>
        <_>
          4 17 6 4 -1.</_>
        <_>
          7 17 3 4 2.</_></rects>
      <tilted>0</tilted></_>
    <_>
      <rects>
        <_>
          4 18 2 1 -1.</_>
        <_>
          5 18 1 1 2.</_></rects>
      <tilted>0</tilted></_>
    <_>
      <rects>
        <_>
          4 20 17 3 -1.</_>
        <_>
          4 21 17 1 3.</_></rects>
      <tilted>0</tilted></_>
    <_>
      <rects>
        <_>
          5 1 11 21 -1.</_>
        <_>
          5 8 11 7 3.</_></rects>
      <tilted>0</tilted></_>
    <_>
      <rects>
        <_>
          5 6 22 12 -1.</_>
        <_>
          5 6 11 6 2.</_>
        <_>
          16 12 11 6 2.</_></rects>
      <tilted>0</tilted></_>
    <_>
      <rects>
        <_>
          5 6 12 16 -1.</_>
        <_>
          5 14 12 8 2.</_></rects>
      <tilted>0</tilted></_>
    <_>
      <rects>
        <_>
          5 6 21 18 -1.</_>
        <_>
          5 15 21 9 2.</_></rects>
      <tilted>0</tilted></_>
    <_>
      <rects>
        <_>
          5 7 20 18 -1.</_>
        <_>
          5 7 10 9 2.</_>
        <_>
          15 16 10 9 2.</_></rects>
      <tilted>0</tilted></_>
    <_>
      <rects>
        <_>
          5 8 20 16 -1.</_>
        <_>
          5 8 10 8 2.</_>
        <_>
          15 16 10 8 2.</_></rects>
      <tilted>0</tilted></_>
    <_>
      <rects>
        <_>
          5 8 23 15 -1.</_>
        <_>
          5 13 23 5 3.</_></rects>
      <tilted>0</tilted></_>
    <_>
      <rects>
        <_>
          5 9 15 12 -1.</_>
        <_>
          5 13 15 4 3.</_></rects>
      <tilted>0</tilted></_>
    <_>
      <rects>
        <_>
          5 11 20 9 -1.</_>
        <_>
          5 14 20 3 3.</_></rects>
      <tilted>0</tilted></_>
    <_>
      <rects>
        <_>
          5 12 3 5 -1.</_>
        <_>
          6 12 1 5 3.</_></rects>
      <tilted>0</tilted></_>
    <_>
      <rects>
        <_>
          5 13 22 5 -1.</_>
        <_>
          16 13 11 5 2.</_></rects>
      <tilted>0</tilted></_>
    <_>
      <rects>
        <_>
          5 15 2 2 -1.</_>
        <_>
          6 15 1 2 2.</_></rects>
      <tilted>0</tilted></_>
    <_>
      <rects>
        <_>
          5 15 3 2 -1.</_>
        <_>
          6 15 1 2 3.</_></rects>
      <tilted>0</tilted></_>
    <_>
      <rects>
        <_>
          5 15 3 3 -1.</_>
        <_>
          6 15 1 3 3.</_></rects>
      <tilted>0</tilted></_>
    <_>
      <rects>
        <_>
          5 15 12 2 -1.</_>
        <_>
          9 15 4 2 3.</_></rects>
      <tilted>0</tilted></_>
    <_>
      <rects>
        <_>
          5 16 4 1 -1.</_>
        <_>
          7 16 2 1 2.</_></rects>
      <tilted>0</tilted></_>
    <_>
      <rects>
        <_>
          5 17 3 1 -1.</_>
        <_>
          6 17 1 1 3.</_></rects>
      <tilted>0</tilted></_>
    <_>
      <rects>
        <_>
          6 3 18 22 -1.</_>
        <_>
          12 3 6 22 3.</_></rects>
      <tilted>0</tilted></_>
    <_>
      <rects>
        <_>
          6 4 18 19 -1.</_>
        <_>
          12 4 6 19 3.</_></rects>
      <tilted>0</tilted></_>
    <_>
      <rects>
        <_>
          6 5 18 16 -1.</_>
        <_>
          6 5 9 8 2.</_>
        <_>
          15 13 9 8 2.</_></rects>
      <tilted>0</tilted></_>
    <_>
      <rects>
        <_>
          6 7 18 16 -1.</_>
        <_>
          6 7 9 8 2.</_>
        <_>
          15 15 9 8 2.</_></rects>
      <tilted>0</tilted></_>
    <_>
      <rects>
        <_>
          6 7 18 18 -1.</_>
        <_>
          6 7 9 9 2.</_>
        <_>
          15 16 9 9 2.</_></rects>
      <tilted>0</tilted></_>
    <_>
      <rects>
        <_>
          6 7 22 20 -1.</_>
        <_>
          6 7 11 10 2.</_>
        <_>
          17 17 11 10 2.</_></rects>
      <tilted>0</tilted></_>
    <_>
      <rects>
        <_>
          6 8 18 16 -1.</_>
        <_>
          6 8 9 8 2.</_>
        <_>
          15 16 9 8 2.</_></rects>
      <tilted>0</tilted></_>
    <_>
      <rects>
        <_>
          6 8 20 16 -1.</_>
        <_>
          6 8 10 8 2.</_>
        <_>
          16 16 10 8 2.</_></rects>
      <tilted>0</tilted></_>
    <_>
      <rects>
        <_>
          6 9 18 14 -1.</_>
        <_>
          6 9 9 7 2.</_>
        <_>
          15 16 9 7 2.</_></rects>
      <tilted>0</tilted></_>
    <_>
      <rects>
        <_>
          6 10 3 9 -1.</_>
        <_>
          7 10 1 9 3.</_></rects>
      <tilted>0</tilted></_>
    <_>
      <rects>
        <_>
          6 11 3 6 -1.</_>
        <_>
          7 11 1 6 3.</_></rects>
      <tilted>0</tilted></_>
    <_>
      <rects>
        <_>
          6 11 18 12 -1.</_>
        <_>
          6 11 9 6 2.</_>
        <_>
          15 17 9 6 2.</_></rects>
      <tilted>0</tilted></_>
    <_>
      <rects>
        <_>
          6 13 1 4 -1.</_>
        <_>
          6 15 1 2 2.</_></rects>
      <tilted>0</tilted></_>
    <_>
      <rects>
        <_>
          6 13 3 8 -1.</_>
        <_>
          7 13 1 8 3.</_></rects>
      <tilted>0</tilted></_>
    <_>
      <rects>
        <_>
          6 16 2 4 -1.</_>
        <_>
          6 18 2 2 2.</_></rects>
      <tilted>0</tilted></_>
    <_>
      <rects>
        <_>
          6 18 14 1 -1.</_>
        <_>
          13 18 7 1 2.</_></rects>
      <tilted>0</tilted></_>
    <_>
      <rects>
        <_>
          6 19 2 2 -1.</_>
        <_>
          7 19 1 2 2.</_></rects>
      <tilted>0</tilted></_>
    <_>
      <rects>
        <_>
          6 19 2 3 -1.</_>
        <_>
          7 19 1 3 2.</_></rects>
      <tilted>0</tilted></_>
    <_>
      <rects>
        <_>
          7 6 18 7 -1.</_>
        <_>
          16 6 9 7 2.</_></rects>
      <tilted>0</tilted></_>
    <_>
      <rects>
        <_>
          7 7 16 16 -1.</_>
        <_>
          7 7 8 8 2.</_>
        <_>
          15 15 8 8 2.</_></rects>
      <tilted>0</tilted></_>
    <_>
      <rects>
        <_>
          7 8 4 2 -1.</_>
        <_>
          7 9 4 1 2.</_></rects>
      <tilted>0</tilted></_>
    <_>
      <rects>
        <_>
          7 8 14 16 -1.</_>
        <_>
          7 8 7 8 2.</_>
        <_>
          14 16 7 8 2.</_></rects>
      <tilted>0</tilted></_>
    <_>
      <rects>
        <_>
          7 8 16 14 -1.</_>
        <_>
          7 8 8 7 2.</_>
        <_>
          15 15 8 7 2.</_></rects>
      <tilted>0</tilted></_>
    <_>
      <rects>
        <_>
          7 9 22 16 -1.</_>
        <_>
          7 9 11 8 2.</_>
        <_>
          18 17 11 8 2.</_></rects>
      <tilted>0</tilted></_>
    <_>
      <rects>
        <_>
          7 10 22 12 -1.</_>
        <_>
          7 14 22 4 3.</_></rects>
      <tilted>0</tilted></_>
    <_>
      <rects>
        <_>
          7 12 3 6 -1.</_>
        <_>
          8 12 1 6 3.</_></rects>
      <tilted>0</tilted></_>
    <_>
      <rects>
        <_>
          7 12 18 16 -1.</_>
        <_>
          13 12 6 16 3.</_></rects>
      <tilted>0</tilted></_>
    <_>
      <rects>
        <_>
          7 17 18 6 -1.</_>
        <_>
          13 17 6 6 3.</_></rects>
      <tilted>0</tilted></_>
    <_>
      <rects>
        <_>
          7 18 16 5 -1.</_>
        <_>
          15 18 8 5 2.</_></rects>
      <tilted>0</tilted></_>
    <_>
      <rects>
        <_>
          8 5 16 18 -1.</_>
        <_>
          8 5 8 9 2.</_>
        <_>
          16 14 8 9 2.</_></rects>
      <tilted>0</tilted></_>
    <_>
      <rects>
        <_>
          8 7 16 16 -1.</_>
        <_>
          8 7 8 8 2.</_>
        <_>
          16 15 8 8 2.</_></rects>
      <tilted>0</tilted></_>
    <_>
      <rects>
        <_>
          8 7 20 6 -1.</_>
        <_>
          18 7 10 6 2.</_></rects>
      <tilted>0</tilted></_>
    <_>
      <rects>
        <_>
          8 8 3 2 -1.</_>
        <_>
          8 9 3 1 2.</_></rects>
      <tilted>0</tilted></_>
    <_>
      <rects>
        <_>
          8 8 12 14 -1.</_>
        <_>
          8 8 6 7 2.</_>
        <_>
          14 15 6 7 2.</_></rects>
      <tilted>0</tilted></_>
    <_>
      <rects>
        <_>
          8 9 4 1 -1.</_>
        <_>
          10 9 2 1 2.</_></rects>
      <tilted>0</tilted></_>
    <_>
      <rects>
        <_>
          8 9 15 21 -1.</_>
        <_>
          13 9 5 21 3.</_></rects>
      <tilted>0</tilted></_>
    <_>
      <rects>
        <_>
          8 9 14 10 -1.</_>
        <_>
          8 9 7 5 2.</_>
        <_>
          15 14 7 5 2.</_></rects>
      <tilted>0</tilted></_>
    <_>
      <rects>
        <_>
          8 10 14 12 -1.</_>
        <_>
          8 10 7 6 2.</_>
        <_>
          15 16 7 6 2.</_></rects>
      <tilted>0</tilted></_>
    <_>
      <rects>
        <_>
          8 14 15 9 -1.</_>
        <_>
          13 14 5 9 3.</_></rects>
      <tilted>0</tilted></_>
    <_>
      <rects>
        <_>
          8 16 9 3 -1.</_>
        <_>
          11 16 3 3 3.</_></rects>
      <tilted>0</tilted></_>
    <_>
      <rects>
        <_>
          8 18 2 4 -1.</_>
        <_>
          8 20 2 2 2.</_></rects>
      <tilted>0</tilted></_>
    <_>
      <rects>
        <_>
          9 1 1 26 -1.</_>
        <_>
          9 14 1 13 2.</_></rects>
      <tilted>0</tilted></_>
    <_>
      <rects>
        <_>
          9 8 21 15 -1.</_>
        <_>
          9 13 21 5 3.</_></rects>
      <tilted>0</tilted></_>
    <_>
      <rects>
        <_>
          9 11 12 3 -1.</_>
        <_>
          15 11 6 3 2.</_></rects>
      <tilted>0</tilted></_>
    <_>
      <rects>
        <_>
          9 13 12 14 -1.</_>
        <_>
          13 13 4 14 3.</_></rects>
      <tilted>0</tilted></_>
    <_>
      <rects>
        <_>
          9 17 21 3 -1.</_>
        <_>
          16 17 7 3 3.</_></rects>
      <tilted>0</tilted></_>
    <_>
      <rects>
        <_>
          10 9 12 12 -1.</_>
        <_>
          10 9 6 6 2.</_>
        <_>
          16 15 6 6 2.</_></rects>
      <tilted>0</tilted></_>
    <_>
      <rects>
        <_>
          10 9 12 14 -1.</_>
        <_>
          10 9 6 7 2.</_>
        <_>
          16 16 6 7 2.</_></rects>
      <tilted>0</tilted></_>
    <_>
      <rects>
        <_>
          10 10 4 14 -1.</_>
        <_>
          10 17 4 7 2.</_></rects>
      <tilted>0</tilted></_>
    <_>
      <rects>
        <_>
          10 15 12 4 -1.</_>
        <_>
          10 15 6 2 2.</_>
        <_>
          16 17 6 2 2.</_></rects>
      <tilted>0</tilted></_>
    <_>
      <rects>
        <_>
          10 18 16 2 -1.</_>
        <_>
          18 18 8 2 2.</_></rects>
      <tilted>0</tilted></_>
    <_>
      <rects>
        <_>
          10 19 7 3 -1.</_>
        <_>
          10 20 7 1 3.</_></rects>
      <tilted>0</tilted></_>
    <_>
      <rects>
        <_>
          11 0 12 3 -1.</_>
        <_>
          15 0 4 3 3.</_></rects>
      <tilted>0</tilted></_>
    <_>
      <rects>
        <_>
          11 9 2 21 -1.</_>
        <_>
          11 16 2 7 3.</_></rects>
      <tilted>0</tilted></_>
    <_>
      <rects>
        <_>
          11 10 8 8 -1.</_>
        <_>
          11 10 4 4 2.</_>
        <_>
          15 14 4 4 2.</_></rects>
      <tilted>0</tilted></_>
    <_>
      <rects>
        <_>
          11 20 4 2 -1.</_>
        <_>
          13 20 2 2 2.</_></rects>
      <tilted>0</tilted></_>
    <_>
      <rects>
        <_>
          12 2 7 28 -1.</_>
        <_>
          12 16 7 14 2.</_></rects>
      <tilted>0</tilted></_>
    <_>
      <rects>
        <_>
          12 8 18 6 -1.</_>
        <_>
          18 8 6 6 3.</_></rects>
      <tilted>0</tilted></_>
    <_>
      <rects>
        <_>
          12 13 4 2 -1.</_>
        <_>
          12 13 2 1 2.</_>
        <_>
          14 14 2 1 2.</_></rects>
      <tilted>0</tilted></_>
    <_>
      <rects>
        <_>
          12 13 8 6 -1.</_>
        <_>
          12 13 4 3 2.</_>
        <_>
          16 16 4 3 2.</_></rects>
      <tilted>0</tilted></_>
    <_>
      <rects>
        <_>
          12 14 3 2 -1.</_>
        <_>
          13 14 1 2 3.</_></rects>
      <tilted>0</tilted></_>
    <_>
      <rects>
        <_>
          13 10 15 3 -1.</_>
        <_>
          18 10 5 3 3.</_></rects>
      <tilted>0</tilted></_>
    <_>
      <rects>
        <_>
          13 12 4 8 -1.</_>
        <_>
          13 12 2 4 2.</_>
        <_>
          15 16 2 4 2.</_></rects>
      <tilted>0</tilted></_>
    <_>
      <rects>
        <_>
          13 13 3 2 -1.</_>
        <_>
          14 13 1 2 3.</_></rects>
      <tilted>0</tilted></_>
    <_>
      <rects>
        <_>
          13 14 2 2 -1.</_>
        <_>
          13 14 1 1 2.</_>
        <_>
          14 15 1 1 2.</_></rects>
      <tilted>0</tilted></_>
    <_>
      <rects>
        <_>
          13 15 2 1 -1.</_>
        <_>
          14 15 1 1 2.</_></rects>
      <tilted>0</tilted></_>
    <_>
      <rects>
        <_>
          13 15 4 2 -1.</_>
        <_>
          15 15 2 2 2.</_></rects>
      <tilted>0</tilted></_>
    <_>
      <rects>
        <_>
          14 3 16 19 -1.</_>
        <_>
          22 3 8 19 2.</_></rects>
      <tilted>0</tilted></_>
    <_>
      <rects>
        <_>
          14 12 2 8 -1.</_>
        <_>
          14 12 1 4 2.</_>
        <_>
          15 16 1 4 2.</_></rects>
      <tilted>0</tilted></_>
    <_>
      <rects>
        <_>
          14 13 1 2 -1.</_>
        <_>
          14 14 1 1 2.</_></rects>
      <tilted>0</tilted></_>
    <_>
      <rects>
        <_>
          14 13 1 3 -1.</_>
        <_>
          14 14 1 1 3.</_></rects>
      <tilted>0</tilted></_>
    <_>
      <rects>
        <_>
          14 13 2 8 -1.</_>
        <_>
          14 13 1 4 2.</_>
        <_>
          15 17 1 4 2.</_></rects>
      <tilted>0</tilted></_>
    <_>
      <rects>
        <_>
          14 14 2 1 -1.</_>
        <_>
          15 14 1 1 2.</_></rects>
      <tilted>0</tilted></_>
    <_>
      <rects>
        <_>
          14 14 3 1 -1.</_>
        <_>
          15 14 1 1 3.</_></rects>
      <tilted>0</tilted></_>
    <_>
      <rects>
        <_>
          14 14 1 3 -1.</_>
        <_>
          14 15 1 1 3.</_></rects>
      <tilted>0</tilted></_>
    <_>
      <rects>
        <_>
          14 14 2 3 -1.</_>
        <_>
          14 15 2 1 3.</_></rects>
      <tilted>0</tilted></_>
    <_>
      <rects>
        <_>
          14 15 1 3 -1.</_>
        <_>
          14 16 1 1 3.</_></rects>
      <tilted>0</tilted></_>
    <_>
      <rects>
        <_>
          14 16 1 4 -1.</_>
        <_>
          14 18 1 2 2.</_></rects>
      <tilted>0</tilted></_>
    <_>
      <rects>
        <_>
          14 16 9 1 -1.</_>
        <_>
          17 16 3 1 3.</_></rects>
      <tilted>0</tilted></_>
    <_>
      <rects>
        <_>
          14 19 3 3 -1.</_>
        <_>
          14 20 3 1 3.</_></rects>
      <tilted>0</tilted></_>
    <_>
      <rects>
        <_>
          15 0 2 22 -1.</_>
        <_>
          15 11 2 11 2.</_></rects>
      <tilted>0</tilted></_>
    <_>
      <rects>
        <_>
          15 13 1 3 -1.</_>
        <_>
          15 14 1 1 3.</_></rects>
      <tilted>0</tilted></_>
    <_>
      <rects>
        <_>
          15 14 3 1 -1.</_>
        <_>
          16 14 1 1 3.</_></rects>
      <tilted>0</tilted></_>
    <_>
      <rects>
        <_>
          15 14 2 2 -1.</_>
        <_>
          15 14 1 1 2.</_>
        <_>
          16 15 1 1 2.</_></rects>
      <tilted>0</tilted></_>
    <_>
      <rects>
        <_>
          15 15 2 1 -1.</_>
        <_>
          16 15 1 1 2.</_></rects>
      <tilted>0</tilted></_>
    <_>
      <rects>
        <_>
          15 15 3 1 -1.</_>
        <_>
          16 15 1 1 3.</_></rects>
      <tilted>0</tilted></_>
    <_>
      <rects>
        <_>
          15 15 6 2 -1.</_>
        <_>
          17 15 2 2 3.</_></rects>
      <tilted>0</tilted></_>
    <_>
      <rects>
        <_>
          15 15 9 1 -1.</_>
        <_>
          18 15 3 1 3.</_></rects>
      <tilted>0</tilted></_>
    <_>
      <rects>
        <_>
          15 16 2 2 -1.</_>
        <_>
          15 16 1 1 2.</_>
        <_>
          16 17 1 1 2.</_></rects>
      <tilted>0</tilted></_>
    <_>
      <rects>
        <_>
          16 0 12 27 -1.</_>
        <_>
          16 9 12 9 3.</_></rects>
      <tilted>0</tilted></_>
    <_>
      <rects>
        <_>
          16 11 7 12 -1.</_>
        <_>
          16 17 7 6 2.</_></rects>
      <tilted>0</tilted></_>
    <_>
      <rects>
        <_>
          16 14 4 3 -1.</_>
        <_>
          16 15 4 1 3.</_></rects>
      <tilted>0</tilted></_>
    <_>
      <rects>
        <_>
          16 15 1 3 -1.</_>
        <_>
          16 16 1 1 3.</_></rects>
      <tilted>0</tilted></_>
    <_>
      <rects>
        <_>
          16 15 3 3 -1.</_>
        <_>
          16 16 3 1 3.</_></rects>
      <tilted>0</tilted></_>
    <_>
      <rects>
        <_>
          17 13 4 8 -1.</_>
        <_>
          17 17 4 4 2.</_></rects>
      <tilted>0</tilted></_>
    <_>
      <rects>
        <_>
          18 9 4 2 -1.</_>
        <_>
          20 9 2 2 2.</_></rects>
      <tilted>0</tilted></_>
    <_>
      <rects>
        <_>
          18 10 4 1 -1.</_>
        <_>
          20 10 2 1 2.</_></rects>
      <tilted>0</tilted></_>
    <_>
      <rects>
        <_>
          18 11 4 2 -1.</_>
        <_>
          20 11 2 2 2.</_></rects>
      <tilted>0</tilted></_>
    <_>
      <rects>
        <_>
          18 11 6 4 -1.</_>
        <_>
          20 11 2 4 3.</_></rects>
      <tilted>0</tilted></_>
    <_>
      <rects>
        <_>
          18 15 6 7 -1.</_>
        <_>
          20 15 2 7 3.</_></rects>
      <tilted>0</tilted></_>
    <_>
      <rects>
        <_>
          18 19 4 1 -1.</_>
        <_>
          20 19 2 1 2.</_></rects>
      <tilted>0</tilted></_>
    <_>
      <rects>
        <_>
          19 11 9 4 -1.</_>
        <_>
          22 11 3 4 3.</_></rects>
      <tilted>0</tilted></_>
    <_>
      <rects>
        <_>
          19 13 3 6 -1.</_>
        <_>
          20 13 1 6 3.</_></rects>
      <tilted>0</tilted></_>
    <_>
      <rects>
        <_>
          19 14 6 2 -1.</_>
        <_>
          21 14 2 2 3.</_></rects>
      <tilted>0</tilted></_>
    <_>
      <rects>
        <_>
          19 14 2 12 -1.</_>
        <_>
          19 18 2 4 3.</_></rects>
      <tilted>0</tilted></_>
    <_>
      <rects>
        <_>
          20 9 6 2 -1.</_>
        <_>
          23 9 3 2 2.</_></rects>
      <tilted>0</tilted></_>
    <_>
      <rects>
        <_>
          20 10 3 12 -1.</_>
        <_>
          21 10 1 12 3.</_></rects>
      <tilted>0</tilted></_>
    <_>
      <rects>
        <_>
          20 10 6 1 -1.</_>
        <_>
          23 10 3 1 2.</_></rects>
      <tilted>0</tilted></_>
    <_>
      <rects>
        <_>
          20 10 6 2 -1.</_>
        <_>
          23 10 3 2 2.</_></rects>
      <tilted>0</tilted></_>
    <_>
      <rects>
        <_>
          20 11 3 9 -1.</_>
        <_>
          21 11 1 9 3.</_></rects>
      <tilted>0</tilted></_>
    <_>
      <rects>
        <_>
          20 13 6 2 -1.</_>
        <_>
          23 13 3 2 2.</_></rects>
      <tilted>0</tilted></_>
    <_>
      <rects>
        <_>
          20 15 6 1 -1.</_>
        <_>
          23 15 3 1 2.</_></rects>
      <tilted>0</tilted></_>
    <_>
      <rects>
        <_>
          20 18 4 2 -1.</_>
        <_>
          22 18 2 2 2.</_></rects>
      <tilted>0</tilted></_>
    <_>
      <rects>
        <_>
          20 19 4 1 -1.</_>
        <_>
          22 19 2 1 2.</_></rects>
      <tilted>0</tilted></_>
    <_>
      <rects>
        <_>
          21 9 4 2 -1.</_>
        <_>
          23 9 2 2 2.</_></rects>
      <tilted>0</tilted></_>
    <_>
      <rects>
        <_>
          21 16 3 4 -1.</_>
        <_>
          21 18 3 2 2.</_></rects>
      <tilted>0</tilted></_>
    <_>
      <rects>
        <_>
          22 15 6 1 -1.</_>
        <_>
          25 15 3 1 2.</_></rects>
      <tilted>0</tilted></_>
    <_>
      <rects>
        <_>
          23 11 4 3 -1.</_>
        <_>
          25 11 2 3 2.</_></rects>
      <tilted>0</tilted></_>
    <_>
      <rects>
        <_>
          23 20 3 1 -1.</_>
        <_>
          24 20 1 1 3.</_></rects>
      <tilted>0</tilted></_>
    <_>
      <rects>
        <_>
          24 5 1 24 -1.</_>
        <_>
          24 13 1 8 3.</_></rects>
      <tilted>0</tilted></_>
    <_>
      <rects>
        <_>
          24 10 3 2 -1.</_>
        <_>
          24 11 3 1 2.</_></rects>
      <tilted>0</tilted></_>
    <_>
      <rects>
        <_>
          24 14 2 4 -1.</_>
        <_>
          24 16 2 2 2.</_></rects>
      <tilted>0</tilted></_>
    <_>
      <rects>
        <_>
          24 17 2 2 -1.</_>
        <_>
          25 17 1 2 2.</_></rects>
      <tilted>0</tilted></_>
    <_>
      <rects>
        <_>
          25 13 3 2 -1.</_>
        <_>
          26 13 1 2 3.</_></rects>
      <tilted>0</tilted></_>
    <_>
      <rects>
        <_>
          25 14 2 1 -1.</_>
        <_>
          26 14 1 1 2.</_></rects>
      <tilted>0</tilted></_>
    <_>
      <rects>
        <_>
          26 4 4 26 -1.</_>
        <_>
          26 4 2 13 2.</_>
        <_>
          28 17 2 13 2.</_></rects>
      <tilted>0</tilted></_>
    <_>
      <rects>
        <_>
          26 7 4 19 -1.</_>
        <_>
          28 7 2 19 2.</_></rects>
      <tilted>0</tilted></_>
    <_>
      <rects>
        <_>
          28 7 2 18 -1.</_>
        <_>
          28 7 1 9 2.</_>
        <_>
          29 16 1 9 2.</_></rects>
      <tilted>0</tilted></_>
    <_>
      <rects>
        <_>
          28 8 2 14 -1.</_>
        <_>
          29 8 1 14 2.</_></rects>
      <tilted>0</tilted></_></features></cascade>
</opencv_storage>
