<?xml version="1.0"?>
<opencv_storage>
<cascade>
  <stageType>BOOST</stageType>
  <featureType>HAAR</featureType>
  <height>30</height>
  <width>30</width>
  <stageParams>
    <boostType>GAB</boostType>
    <minHitRate>9.9900001287460327e-01</minHitRate>
    <maxFalseAlarm>5.0000000000000000e-01</maxFalseAlarm>
    <weightTrimRate>9.4999999999999996e-01</weightTrimRate>
    <maxDepth>1</maxDepth>
    <maxWeakCount>100</maxWeakCount></stageParams>
  <featureParams>
    <maxCatCount>0</maxCatCount>
    <featSize>1</featSize>
    <mode>BASIC</mode></featureParams>
  <stageNum>16</stageNum>
  <stages>
    <!-- stage 0 -->
    <_>
      <maxWeakCount>9</maxWeakCount>
      <stageThreshold>-5.3152066469192505e-01</stageThreshold>
      <weakClassifiers>
        <_>
          <internalNodes>
            0 -1 77 6.8688735365867615e-02</internalNodes>
          <leafValues>
            -4.2105264961719513e-02 9.7391301393508911e-01</leafValues></_>
        <_>
          <internalNodes>
            0 -1 74 -9.5271870493888855e-02</internalNodes>
          <leafValues>
            9.7840118408203125e-01 -3.1594944000244141e-01</leafValues></_>
        <_>
          <internalNodes>
            0 -1 93 5.4992936551570892e-02</internalNodes>
          <leafValues>
            -1.8008403480052948e-01 8.8663148880004883e-01</leafValues></_>
        <_>
          <internalNodes>
            0 -1 54 1.0637324303388596e-02</internalNodes>
          <leafValues>
            -3.4728917479515076e-01 8.8632827997207642e-01</leafValues></_>
        <_>
          <internalNodes>
            0 -1 33 -1.1731661856174469e-01</internalNodes>
          <leafValues>
            9.9106770753860474e-01 -1.6307255625724792e-01</leafValues></_>
        <_>
          <internalNodes>
            0 -1 109 2.1174957975745201e-02</internalNodes>
          <leafValues>
            -2.6730069518089294e-01 8.5491466522216797e-01</leafValues></_>
        <_>
          <internalNodes>
            0 -1 178 3.5770764225162566e-04</internalNodes>
          <leafValues>
            2.9672679305076599e-01 -8.9774537086486816e-01</leafValues></_>
        <_>
          <internalNodes>
            0 -1 108 2.6616182178258896e-02</internalNodes>
          <leafValues>
            -3.0398809909820557e-01 7.4912595748901367e-01</leafValues></_>
        <_>
          <internalNodes>
            0 -1 90 -8.4530562162399292e-02</internalNodes>
          <leafValues>
            9.4300538301467896e-01 -2.6157221198081970e-01</leafValues></_></weakClassifiers></_>
    <!-- stage 1 -->
    <_>
      <maxWeakCount>9</maxWeakCount>
      <stageThreshold>-1.2364341020584106e+00</stageThreshold>
      <weakClassifiers>
        <_>
          <internalNodes>
            0 -1 177 -1.2286002747714520e-03</internalNodes>
          <leafValues>
            -8.8333332538604736e-01 4.4999998807907104e-01</leafValues></_>
        <_>
          <internalNodes>
            0 -1 75 6.6150233149528503e-02</internalNodes>
          <leafValues>
            -2.7310362458229065e-01 9.2681735754013062e-01</leafValues></_>
        <_>
          <internalNodes>
            0 -1 116 -3.0278695747256279e-02</internalNodes>
          <leafValues>
            9.6034657955169678e-01 -3.2200562953948975e-01</leafValues></_>
        <_>
          <internalNodes>
            0 -1 27 -8.0546364188194275e-02</internalNodes>
          <leafValues>
            -9.0464824438095093e-01 2.7918553352355957e-01</leafValues></_>
        <_>
          <internalNodes>
            0 -1 31 1.3033217191696167e-01</internalNodes>
          <leafValues>
            -2.7534893155097961e-01 7.5872921943664551e-01</leafValues></_>
        <_>
          <internalNodes>
            0 -1 104 1.9448649138212204e-02</internalNodes>
          <leafValues>
            -4.2202946543693542e-01 7.8339409828186035e-01</leafValues></_>
        <_>
          <internalNodes>
            0 -1 76 -1.2732224166393280e-01</internalNodes>
          <leafValues>
            9.6805441379547119e-01 -4.9564350396394730e-02</leafValues></_>
        <_>
          <internalNodes>
            0 -1 79 -4.6169515699148178e-03</internalNodes>
          <leafValues>
            6.9945228099822998e-01 -3.2638806104660034e-01</leafValues></_>
        <_>
          <internalNodes>
            0 -1 32 -5.1989529281854630e-02</internalNodes>
          <leafValues>
            8.4223526716232300e-01 -3.1876933574676514e-01</leafValues></_></weakClassifiers></_>
    <!-- stage 2 -->
    <_>
      <maxWeakCount>9</maxWeakCount>
      <stageThreshold>-1.0370628833770752e+00</stageThreshold>
      <weakClassifiers>
        <_>
          <internalNodes>
            0 -1 107 4.2731959372758865e-02</internalNodes>
          <leafValues>
            4.2480882257223129e-03 9.3380612134933472e-01</leafValues></_>
        <_>
          <internalNodes>
            0 -1 91 -1.2521305680274963e-01</internalNodes>
          <leafValues>
            9.1598552465438843e-01 -2.2730869054794312e-01</leafValues></_>
        <_>
          <internalNodes>
            0 -1 30 3.5603803396224976e-01</internalNodes>
          <leafValues>
            -1.2875588238239288e-01 8.2379317283630371e-01</leafValues></_>
        <_>
          <internalNodes>
            0 -1 89 -7.8411534428596497e-02</internalNodes>
          <leafValues>
            7.7491760253906250e-01 -2.7162703871726990e-01</leafValues></_>
        <_>
          <internalNodes>
            0 -1 67 -7.8122094273567200e-02</internalNodes>
          <leafValues>
            8.6428618431091309e-01 -1.5422281622886658e-01</leafValues></_>
        <_>
          <internalNodes>
            0 -1 70 3.1040346948429942e-04</internalNodes>
          <leafValues>
            3.0447569489479065e-01 -6.5177941322326660e-01</leafValues></_>
        <_>
          <internalNodes>
            0 -1 46 1.8119224905967712e-01</internalNodes>
          <leafValues>
            -2.2836133837699890e-01 9.0485948324203491e-01</leafValues></_>
        <_>
          <internalNodes>
            0 -1 194 2.2067126701585948e-04</internalNodes>
          <leafValues>
            2.8855600953102112e-01 -6.2762403488159180e-01</leafValues></_>
        <_>
          <internalNodes>
            0 -1 190 -1.5819343389011919e-04</internalNodes>
          <leafValues>
            -6.3638085126876831e-01 2.9211315512657166e-01</leafValues></_></weakClassifiers></_>
    <!-- stage 3 -->
    <_>
      <maxWeakCount>8</maxWeakCount>
      <stageThreshold>-5.8445340394973755e-01</stageThreshold>
      <weakClassifiers>
        <_>
          <internalNodes>
            0 -1 70 -1.8056663975585252e-04</internalNodes>
          <leafValues>
            -3.8359200954437256e-01 4.9869450926780701e-01</leafValues></_>
        <_>
          <internalNodes>
            0 -1 65 1.1821662634611130e-01</internalNodes>
          <leafValues>
            -2.0421391725540161e-01 9.0675157308578491e-01</leafValues></_>
        <_>
          <internalNodes>
            0 -1 17 -2.5036895275115967e-01</internalNodes>
          <leafValues>
            8.6178517341613770e-01 -2.7567636966705322e-01</leafValues></_>
        <_>
          <internalNodes>
            0 -1 172 -2.8300075791776180e-04</internalNodes>
          <leafValues>
            -6.0436689853668213e-01 3.1297948956489563e-01</leafValues></_>
        <_>
          <internalNodes>
            0 -1 164 2.2736231039743870e-04</internalNodes>
          <leafValues>
            2.2923657298088074e-01 -6.1617308855056763e-01</leafValues></_>
        <_>
          <internalNodes>
            0 -1 75 8.1410229206085205e-02</internalNodes>
          <leafValues>
            -2.1031604707241058e-01 8.3496195077896118e-01</leafValues></_>
        <_>
          <internalNodes>
            0 -1 11 1.0495098307728767e-02</internalNodes>
          <leafValues>
            -3.4697282314300537e-01 6.1071866750717163e-01</leafValues></_>
        <_>
          <internalNodes>
            0 -1 197 6.4432810177095234e-05</internalNodes>
          <leafValues>
            3.3516660332679749e-01 -5.8818483352661133e-01</leafValues></_></weakClassifiers></_>
    <!-- stage 4 -->
    <_>
      <maxWeakCount>10</maxWeakCount>
      <stageThreshold>-1.0925222635269165e+00</stageThreshold>
      <weakClassifiers>
        <_>
          <internalNodes>
            0 -1 114 -5.6886240839958191e-02</internalNodes>
          <leafValues>
            -9.0909093618392944e-01 3.7344399094581604e-01</leafValues></_>
        <_>
          <internalNodes>
            0 -1 47 2.0512330532073975e-01</internalNodes>
          <leafValues>
            -1.6897338628768921e-01 8.6738401651382446e-01</leafValues></_>
        <_>
          <internalNodes>
            0 -1 169 -7.7748209238052368e-02</internalNodes>
          <leafValues>
            7.0271426439285278e-01 -3.1344136595726013e-01</leafValues></_>
        <_>
          <internalNodes>
            0 -1 184 -1.5011175128165632e-04</internalNodes>
          <leafValues>
            -6.2580060958862305e-01 2.5906348228454590e-01</leafValues></_>
        <_>
          <internalNodes>
            0 -1 188 1.9261310808360577e-04</internalNodes>
          <leafValues>
            2.2874613106250763e-01 -6.7235416173934937e-01</leafValues></_>
        <_>
          <internalNodes>
            0 -1 84 5.9515215456485748e-02</internalNodes>
          <leafValues>
            -2.3186588287353516e-01 7.2850507497787476e-01</leafValues></_>
        <_>
          <internalNodes>
            0 -1 99 -1.4281846582889557e-02</internalNodes>
          <leafValues>
            5.5466538667678833e-01 -3.0090558528900146e-01</leafValues></_>
        <_>
          <internalNodes>
            0 -1 62 -1.8314242362976074e-01</internalNodes>
          <leafValues>
            8.8833361864089966e-01 -1.9167125225067139e-01</leafValues></_>
        <_>
          <internalNodes>
            0 -1 189 -1.7190180369652808e-04</internalNodes>
          <leafValues>
            -5.8589291572570801e-01 3.5618144273757935e-01</leafValues></_>
        <_>
          <internalNodes>
            0 -1 142 -2.5902315974235535e-04</internalNodes>
          <leafValues>
            4.6205809712409973e-01 -3.3993005752563477e-01</leafValues></_></weakClassifiers></_>
    <!-- stage 5 -->
    <_>
      <maxWeakCount>12</maxWeakCount>
      <stageThreshold>-9.4990015029907227e-01</stageThreshold>
      <weakClassifiers>
        <_>
          <internalNodes>
            0 -1 43 -9.2388734221458435e-02</internalNodes>
          <leafValues>
            -9.4074076414108276e-01 3.5972696542739868e-01</leafValues></_>
        <_>
          <internalNodes>
            0 -1 28 6.9672226905822754e-02</internalNodes>
          <leafValues>
            1.8526920676231384e-01 -9.5001614093780518e-01</leafValues></_>
        <_>
          <internalNodes>
            0 -1 181 -8.8756758486852050e-05</internalNodes>
          <leafValues>
            -6.5240722894668579e-01 1.9255204498767853e-01</leafValues></_>
        <_>
          <internalNodes>
            0 -1 199 -6.2457523308694363e-03</internalNodes>
          <leafValues>
            5.2231705188751221e-01 -2.9492929577827454e-01</leafValues></_>
        <_>
          <internalNodes>
            0 -1 140 -1.4144789427518845e-02</internalNodes>
          <leafValues>
            6.9903689622879028e-01 -2.1709737181663513e-01</leafValues></_>
        <_>
          <internalNodes>
            0 -1 122 -1.7254263162612915e-02</internalNodes>
          <leafValues>
            5.4346388578414917e-01 -3.1166681647300720e-01</leafValues></_>
        <_>
          <internalNodes>
            0 -1 117 2.3203346878290176e-02</internalNodes>
          <leafValues>
            -2.0123393833637238e-01 6.6326844692230225e-01</leafValues></_>
        <_>
          <internalNodes>
            0 -1 44 -2.3901781439781189e-01</internalNodes>
          <leafValues>
            7.4364155530929565e-01 -2.3797427117824554e-01</leafValues></_>
        <_>
          <internalNodes>
            0 -1 63 -1.1515288054943085e-01</internalNodes>
          <leafValues>
            8.0262869596481323e-01 -1.6290061175823212e-01</leafValues></_>
        <_>
          <internalNodes>
            0 -1 18 4.5684684067964554e-02</internalNodes>
          <leafValues>
            -2.6597630977630615e-01 5.3371018171310425e-01</leafValues></_>
        <_>
          <internalNodes>
            0 -1 37 6.1529405415058136e-02</internalNodes>
          <leafValues>
            -2.3095062375068665e-01 6.2239784002304077e-01</leafValues></_>
        <_>
          <internalNodes>
            0 -1 186 -2.4724256945773959e-04</internalNodes>
          <leafValues>
            -6.2622088193893433e-01 2.8055366873741150e-01</leafValues></_></weakClassifiers></_>
    <!-- stage 6 -->
    <_>
      <maxWeakCount>12</maxWeakCount>
      <stageThreshold>-9.0510517358779907e-01</stageThreshold>
      <weakClassifiers>
        <_>
          <internalNodes>
            0 -1 131 8.3124061347916722e-04</internalNodes>
          <leafValues>
            3.9073807001113892e-01 -6.4220184087753296e-01</leafValues></_>
        <_>
          <internalNodes>
            0 -1 124 -1.6326751559972763e-02</internalNodes>
          <leafValues>
            6.9135999679565430e-01 -1.8884211778640747e-01</leafValues></_>
        <_>
          <internalNodes>
            0 -1 8 4.3006390333175659e-02</internalNodes>
          <leafValues>
            -3.3548766374588013e-01 5.9011667966842651e-01</leafValues></_>
        <_>
          <internalNodes>
            0 -1 147 2.0757503807544708e-01</internalNodes>
          <leafValues>
            -1.4825391769409180e-01 7.8490179777145386e-01</leafValues></_>
        <_>
          <internalNodes>
            0 -1 49 -3.8046754896640778e-02</internalNodes>
          <leafValues>
            7.3073369264602661e-01 -2.7608296275138855e-01</leafValues></_>
        <_>
          <internalNodes>
            0 -1 165 -1.2277339119464159e-03</internalNodes>
          <leafValues>
            -6.7809414863586426e-01 3.0142140388488770e-01</leafValues></_>
        <_>
          <internalNodes>
            0 -1 34 -8.0575466156005859e-02</internalNodes>
          <leafValues>
            7.0313960313796997e-01 -2.9555711150169373e-01</leafValues></_>
        <_>
          <internalNodes>
            0 -1 66 -2.0041830837726593e-02</internalNodes>
          <leafValues>
            6.9861769676208496e-01 -1.0321296751499176e-01</leafValues></_>
        <_>
          <internalNodes>
            0 -1 15 2.4413824081420898e-01</internalNodes>
          <leafValues>
            -2.3731498420238495e-01 8.7100285291671753e-01</leafValues></_>
        <_>
          <internalNodes>
            0 -1 110 6.4426206517964602e-04</internalNodes>
          <leafValues>
            2.5312969088554382e-01 -6.1947971582412720e-01</leafValues></_>
        <_>
          <internalNodes>
            0 -1 59 -1.3137179613113403e-01</internalNodes>
          <leafValues>
            6.0536682605743408e-01 -2.2630777955055237e-01</leafValues></_>
        <_>
          <internalNodes>
            0 -1 85 -9.6948014106601477e-04</internalNodes>
          <leafValues>
            -6.8994253873825073e-01 2.3054154217243195e-01</leafValues></_></weakClassifiers></_>
    <!-- stage 7 -->
    <_>
      <maxWeakCount>16</maxWeakCount>
      <stageThreshold>-1.1277035474777222e+00</stageThreshold>
      <weakClassifiers>
        <_>
          <internalNodes>
            0 -1 41 1.7824074625968933e-01</internalNodes>
          <leafValues>
            3.4508475661277771e-01 -8.7199997901916504e-01</leafValues></_>
        <_>
          <internalNodes>
            0 -1 174 -1.9139038340654224e-04</internalNodes>
          <leafValues>
            -5.2129101753234863e-01 2.2987018525600433e-01</leafValues></_>
        <_>
          <internalNodes>
            0 -1 202 -1.2967681977897882e-03</internalNodes>
          <leafValues>
            4.5953524112701416e-01 -2.3950213193893433e-01</leafValues></_>
        <_>
          <internalNodes>
            0 -1 94 -2.1266464143991470e-02</internalNodes>
          <leafValues>
            5.3786528110504150e-01 -2.6062655448913574e-01</leafValues></_>
        <_>
          <internalNodes>
            0 -1 35 -1.6572024673223495e-02</internalNodes>
          <leafValues>
            4.4753983616828918e-01 -3.0055770277976990e-01</leafValues></_>
        <_>
          <internalNodes>
            0 -1 145 -3.7927439552731812e-04</internalNodes>
          <leafValues>
            -5.3578150272369385e-01 2.3079034686088562e-01</leafValues></_>
        <_>
          <internalNodes>
            0 -1 111 4.0293723344802856e-02</internalNodes>
          <leafValues>
            -1.8068596720695496e-01 6.7470997571945190e-01</leafValues></_>
        <_>
          <internalNodes>
            0 -1 106 -2.0615201443433762e-02</internalNodes>
          <leafValues>
            4.8593181371688843e-01 -3.2332232594490051e-01</leafValues></_>
        <_>
          <internalNodes>
            0 -1 72 1.8912492692470551e-01</internalNodes>
          <leafValues>
            -1.5023882687091827e-01 8.3775937557220459e-01</leafValues></_>
        <_>
          <internalNodes>
            0 -1 115 -2.7445841580629349e-02</internalNodes>
          <leafValues>
            6.8703365325927734e-01 -1.7908222973346710e-01</leafValues></_>
        <_>
          <internalNodes>
            0 -1 135 1.6574113396927714e-03</internalNodes>
          <leafValues>
            -2.9173249006271362e-01 4.4822111725807190e-01</leafValues></_>
        <_>
          <internalNodes>
            0 -1 23 3.9110782742500305e-01</internalNodes>
          <leafValues>
            -1.5703143179416656e-01 6.8134337663650513e-01</leafValues></_>
        <_>
          <internalNodes>
            0 -1 20 2.0496027171611786e-01</internalNodes>
          <leafValues>
            -2.0165121555328369e-01 7.1795839071273804e-01</leafValues></_>
        <_>
          <internalNodes>
            0 -1 119 -7.5620487332344055e-03</internalNodes>
          <leafValues>
            6.9720107316970825e-01 -1.7769201099872589e-01</leafValues></_>
        <_>
          <internalNodes>
            0 -1 139 -1.3050186634063721e-01</internalNodes>
          <leafValues>
            6.2765216827392578e-01 -1.8062847852706909e-01</leafValues></_>
        <_>
          <internalNodes>
            0 -1 121 -6.3211426138877869e-02</internalNodes>
          <leafValues>
            -9.4275069236755371e-01 1.4575970172882080e-01</leafValues></_></weakClassifiers></_>
    <!-- stage 8 -->
    <_>
      <maxWeakCount>11</maxWeakCount>
      <stageThreshold>-9.3831461668014526e-01</stageThreshold>
      <weakClassifiers>
        <_>
          <internalNodes>
            0 -1 165 1.4922870323061943e-03</internalNodes>
          <leafValues>
            4.0552994608879089e-01 -4.2953020334243774e-01</leafValues></_>
        <_>
          <internalNodes>
            0 -1 201 -2.1332695614546537e-03</internalNodes>
          <leafValues>
            5.1253110170364380e-01 -1.9957210123538971e-01</leafValues></_>
        <_>
          <internalNodes>
            0 -1 58 1.5597400069236755e-01</internalNodes>
          <leafValues>
            1.3718812167644501e-01 -8.4804499149322510e-01</leafValues></_>
        <_>
          <internalNodes>
            0 -1 132 -2.0471252501010895e-02</internalNodes>
          <leafValues>
            -6.8348884582519531e-01 1.5310107171535492e-01</leafValues></_>
        <_>
          <internalNodes>
            0 -1 166 -1.3057299656793475e-04</internalNodes>
          <leafValues>
            -6.6128510236740112e-01 1.5400710701942444e-01</leafValues></_>
        <_>
          <internalNodes>
            0 -1 113 5.0626512616872787e-02</internalNodes>
          <leafValues>
            -2.1141810715198517e-01 7.1133714914321899e-01</leafValues></_>
        <_>
          <internalNodes>
            0 -1 83 -2.5543309748172760e-02</internalNodes>
          <leafValues>
            7.5317835807800293e-01 -1.7143823206424713e-01</leafValues></_>
        <_>
          <internalNodes>
            0 -1 150 1.9729916006326675e-02</internalNodes>
          <leafValues>
            -2.5384336709976196e-01 6.2346619367599487e-01</leafValues></_>
        <_>
          <internalNodes>
            0 -1 68 -5.8211416006088257e-02</internalNodes>
          <leafValues>
            6.1293655633926392e-01 -1.7349901795387268e-01</leafValues></_>
        <_>
          <internalNodes>
            0 -1 36 -5.4578147828578949e-03</internalNodes>
          <leafValues>
            5.0104278326034546e-01 -2.2529986500740051e-01</leafValues></_>
        <_>
          <internalNodes>
            0 -1 80 -1.1388463899493217e-03</internalNodes>
          <leafValues>
            -6.6053324937820435e-01 1.9984318315982819e-01</leafValues></_></weakClassifiers></_>
    <!-- stage 9 -->
    <_>
      <maxWeakCount>13</maxWeakCount>
      <stageThreshold>-6.3551902770996094e-01</stageThreshold>
      <weakClassifiers>
        <_>
          <internalNodes>
            0 -1 171 -1.0243470314890146e-03</internalNodes>
          <leafValues>
            -5.3076922893524170e-01 4.0149253606796265e-01</leafValues></_>
        <_>
          <internalNodes>
            0 -1 182 -1.2845496530644596e-04</internalNodes>
          <leafValues>
            -4.5809474587440491e-01 2.2647692263126373e-01</leafValues></_>
        <_>
          <internalNodes>
            0 -1 175 7.2076305514201522e-05</internalNodes>
          <leafValues>
            2.4954132735729218e-01 -4.4801503419876099e-01</leafValues></_>
        <_>
          <internalNodes>
            0 -1 112 4.2943887412548065e-02</internalNodes>
          <leafValues>
            -1.9066806137561798e-01 5.9607297182083130e-01</leafValues></_>
        <_>
          <internalNodes>
            0 -1 14 -1.9132232666015625e-01</internalNodes>
          <leafValues>
            6.1461859941482544e-01 -2.5260502099990845e-01</leafValues></_>
        <_>
          <internalNodes>
            0 -1 82 -1.9580899970605969e-04</internalNodes>
          <leafValues>
            -4.8262253403663635e-01 2.5975251197814941e-01</leafValues></_>
        <_>
          <internalNodes>
            0 -1 7 1.8498774617910385e-02</internalNodes>
          <leafValues>
            -2.8762421011924744e-01 3.7246623635292053e-01</leafValues></_>
        <_>
          <internalNodes>
            0 -1 120 -1.0055848397314548e-02</internalNodes>
          <leafValues>
            -7.4100089073181152e-01 1.3374136388301849e-01</leafValues></_>
        <_>
          <internalNodes>
            0 -1 91 -1.9048096239566803e-01</internalNodes>
          <leafValues>
            8.8032138347625732e-01 -1.4063353836536407e-01</leafValues></_>
        <_>
          <internalNodes>
            0 -1 196 -7.8424820676445961e-03</internalNodes>
          <leafValues>
            5.0339180231094360e-01 -2.1778745949268341e-01</leafValues></_>
        <_>
          <internalNodes>
            0 -1 204 -1.9294694066047668e-02</internalNodes>
          <leafValues>
            -8.4170430898666382e-01 1.4555326104164124e-01</leafValues></_>
        <_>
          <internalNodes>
            0 -1 26 1.1153478920459747e-01</internalNodes>
          <leafValues>
            -2.2529427707195282e-01 5.1528292894363403e-01</leafValues></_>
        <_>
          <internalNodes>
            0 -1 160 4.4288072967901826e-04</internalNodes>
          <leafValues>
            2.1927860379219055e-01 -5.6877332925796509e-01</leafValues></_></weakClassifiers></_>
    <!-- stage 10 -->
    <_>
      <maxWeakCount>17</maxWeakCount>
      <stageThreshold>-1.0958065986633301e+00</stageThreshold>
      <weakClassifiers>
        <_>
          <internalNodes>
            0 -1 126 -2.1044511348009109e-02</internalNodes>
          <leafValues>
            -7.1270716190338135e-01 3.7279775738716125e-01</leafValues></_>
        <_>
          <internalNodes>
            0 -1 38 -1.9797505810856819e-02</internalNodes>
          <leafValues>
            6.8470561504364014e-01 -1.6254654526710510e-01</leafValues></_>
        <_>
          <internalNodes>
            0 -1 155 1.1155690997838974e-02</internalNodes>
          <leafValues>
            -3.0238926410675049e-01 4.5334807038307190e-01</leafValues></_>
        <_>
          <internalNodes>
            0 -1 51 -3.3825528225861490e-04</internalNodes>
          <leafValues>
            -3.6049923300743103e-01 2.7586975693702698e-01</leafValues></_>
        <_>
          <internalNodes>
            0 -1 123 6.9452688097953796e-02</internalNodes>
          <leafValues>
            -1.6527250409126282e-01 7.1118921041488647e-01</leafValues></_>
        <_>
          <internalNodes>
            0 -1 6 3.0404577031731606e-02</internalNodes>
          <leafValues>
            -1.7059084773063660e-01 5.5904442071914673e-01</leafValues></_>
        <_>
          <internalNodes>
            0 -1 187 -4.1365679353475571e-03</internalNodes>
          <leafValues>
            5.0001668930053711e-01 -1.9758512079715729e-01</leafValues></_>
        <_>
          <internalNodes>
            0 -1 198 1.8818413838744164e-02</internalNodes>
          <leafValues>
            -1.7797164618968964e-01 5.3092813491821289e-01</leafValues></_>
        <_>
          <internalNodes>
            0 -1 95 7.3376983404159546e-02</internalNodes>
          <leafValues>
            -2.0988734066486359e-01 6.3213443756103516e-01</leafValues></_>
        <_>
          <internalNodes>
            0 -1 81 5.1770500838756561e-02</internalNodes>
          <leafValues>
            -1.4675447344779968e-01 6.3487237691879272e-01</leafValues></_>
        <_>
          <internalNodes>
            0 -1 71 -1.8180292099714279e-02</internalNodes>
          <leafValues>
            5.5674737691879272e-01 -2.1097075939178467e-01</leafValues></_>
        <_>
          <internalNodes>
            0 -1 92 -6.8635433912277222e-02</internalNodes>
          <leafValues>
            7.4815475940704346e-01 -1.5500584244728088e-01</leafValues></_>
        <_>
          <internalNodes>
            0 -1 154 -1.5448103658854961e-04</internalNodes>
          <leafValues>
            -4.8542055487632751e-01 2.8416994214057922e-01</leafValues></_>
        <_>
          <internalNodes>
            0 -1 52 8.1302989274263382e-03</internalNodes>
          <leafValues>
            1.4441823959350586e-01 -7.2364419698715210e-01</leafValues></_>
        <_>
          <internalNodes>
            0 -1 97 -4.9491669051349163e-04</internalNodes>
          <leafValues>
            3.6965140700340271e-01 -2.7911144495010376e-01</leafValues></_>
        <_>
          <internalNodes>
            0 -1 118 -2.0052812993526459e-02</internalNodes>
          <leafValues>
            4.6298712491989136e-01 -2.3024679720401764e-01</leafValues></_>
        <_>
          <internalNodes>
            0 -1 144 1.1905482970178127e-03</internalNodes>
          <leafValues>
            -2.1729506552219391e-01 5.8447456359863281e-01</leafValues></_></weakClassifiers></_>
    <!-- stage 11 -->
    <_>
      <maxWeakCount>17</maxWeakCount>
      <stageThreshold>-8.7825518846511841e-01</stageThreshold>
      <weakClassifiers>
        <_>
          <internalNodes>
            0 -1 163 -1.5167125966399908e-03</internalNodes>
          <leafValues>
            -3.8620689511299133e-01 3.9083969593048096e-01</leafValues></_>
        <_>
          <internalNodes>
            0 -1 60 -2.8278017044067383e-01</internalNodes>
          <leafValues>
            7.4919235706329346e-01 -1.3087184727191925e-01</leafValues></_>
        <_>
          <internalNodes>
            0 -1 73 3.6263804882764816e-02</internalNodes>
          <leafValues>
            -1.6329911351203918e-01 6.0972034931182861e-01</leafValues></_>
        <_>
          <internalNodes>
            0 -1 88 -1.0393595695495605e-01</internalNodes>
          <leafValues>
            5.6123006343841553e-01 -1.9356584548950195e-01</leafValues></_>
        <_>
          <internalNodes>
            0 -1 24 -2.4807374179363251e-01</internalNodes>
          <leafValues>
            7.3482513427734375e-01 -1.3848362863063812e-01</leafValues></_>
        <_>
          <internalNodes>
            0 -1 45 2.0193526148796082e-01</internalNodes>
          <leafValues>
            -1.3601239025592804e-01 7.8683811426162720e-01</leafValues></_>
        <_>
          <internalNodes>
            0 -1 153 5.8887220919132233e-02</internalNodes>
          <leafValues>
            -1.7437916994094849e-01 7.0894563198089600e-01</leafValues></_>
        <_>
          <internalNodes>
            0 -1 25 1.0571914166212082e-01</internalNodes>
          <leafValues>
            -1.3970871269702911e-01 6.0269093513488770e-01</leafValues></_>
        <_>
          <internalNodes>
            0 -1 103 4.1934821754693985e-02</internalNodes>
          <leafValues>
            -2.4049405753612518e-01 5.5032509565353394e-01</leafValues></_>
        <_>
          <internalNodes>
            0 -1 157 -7.9781026579439640e-04</internalNodes>
          <leafValues>
            -6.4448529481887817e-01 2.1001833677291870e-01</leafValues></_>
        <_>
          <internalNodes>
            0 -1 19 2.1279850043356419e-03</internalNodes>
          <leafValues>
            -2.1636624634265900e-01 4.9190235137939453e-01</leafValues></_>
        <_>
          <internalNodes>
            0 -1 100 -2.2701003763359040e-04</internalNodes>
          <leafValues>
            -3.9922279119491577e-01 2.8463870286941528e-01</leafValues></_>
        <_>
          <internalNodes>
            0 -1 179 2.1096369891893119e-05</internalNodes>
          <leafValues>
            1.8406374752521515e-01 -4.3208912014961243e-01</leafValues></_>
        <_>
          <internalNodes>
            0 -1 52 7.3704067617654800e-03</internalNodes>
          <leafValues>
            9.9797606468200684e-02 -6.9175559282302856e-01</leafValues></_>
        <_>
          <internalNodes>
            0 -1 155 -1.4201705344021320e-02</internalNodes>
          <leafValues>
            5.6101524829864502e-01 -1.5715925395488739e-01</leafValues></_>
        <_>
          <internalNodes>
            0 -1 101 3.6973375827074051e-02</internalNodes>
          <leafValues>
            -2.6535537838935852e-01 5.0269854068756104e-01</leafValues></_>
        <_>
          <internalNodes>
            0 -1 29 -8.8913090527057648e-02</internalNodes>
          <leafValues>
            5.6109970808029175e-01 -1.8988262116909027e-01</leafValues></_></weakClassifiers></_>
    <!-- stage 12 -->
    <_>
      <maxWeakCount>20</maxWeakCount>
      <stageThreshold>-7.7800416946411133e-01</stageThreshold>
      <weakClassifiers>
        <_>
          <internalNodes>
            0 -1 105 1.1953888460993767e-03</internalNodes>
          <leafValues>
            3.9513677358627319e-01 -4.2253521084785461e-01</leafValues></_>
        <_>
          <internalNodes>
            0 -1 142 -2.6933330809697509e-04</internalNodes>
          <leafValues>
            3.6354252696037292e-01 -2.4350121617317200e-01</leafValues></_>
        <_>
          <internalNodes>
            0 -1 161 -1.7944216961041093e-04</internalNodes>
          <leafValues>
            -4.1384023427963257e-01 2.3642681539058685e-01</leafValues></_>
        <_>
          <internalNodes>
            0 -1 9 -2.6907149702310562e-02</internalNodes>
          <leafValues>
            -3.9165154099464417e-01 2.3035342991352081e-01</leafValues></_>
        <_>
          <internalNodes>
            0 -1 0 5.7019770145416260e-02</internalNodes>
          <leafValues>
            8.9155688881874084e-02 -8.1957250833511353e-01</leafValues></_>
        <_>
          <internalNodes>
            0 -1 3 -3.7733290344476700e-02</internalNodes>
          <leafValues>
            5.1675432920455933e-01 -1.8672396242618561e-01</leafValues></_>
        <_>
          <internalNodes>
            0 -1 125 -7.1363905444741249e-03</internalNodes>
          <leafValues>
            5.5557918548583984e-01 -2.6091659069061279e-01</leafValues></_>
        <_>
          <internalNodes>
            0 -1 185 7.7203323598951101e-05</internalNodes>
          <leafValues>
            2.2936320304870605e-01 -4.7053521871566772e-01</leafValues></_>
        <_>
          <internalNodes>
            0 -1 183 -1.2571937986649573e-04</internalNodes>
          <leafValues>
            -5.3515762090682983e-01 1.8210421502590179e-01</leafValues></_>
        <_>
          <internalNodes>
            0 -1 4 1.2896494008600712e-02</internalNodes>
          <leafValues>
            9.7199380397796631e-02 -7.5827091932296753e-01</leafValues></_>
        <_>
          <internalNodes>
            0 -1 10 2.6359178125858307e-02</internalNodes>
          <leafValues>
            1.0863234847784042e-01 -8.1562566757202148e-01</leafValues></_>
        <_>
          <internalNodes>
            0 -1 128 1.6182446852326393e-02</internalNodes>
          <leafValues>
            -1.8668882548809052e-01 5.7463133335113525e-01</leafValues></_>
        <_>
          <internalNodes>
            0 -1 39 3.4454029798507690e-01</internalNodes>
          <leafValues>
            -1.7593908309936523e-01 6.4411687850952148e-01</leafValues></_>
        <_>
          <internalNodes>
            0 -1 61 1.9537205994129181e-01</internalNodes>
          <leafValues>
            -1.4200852811336517e-01 6.9646638631820679e-01</leafValues></_>
        <_>
          <internalNodes>
            0 -1 64 6.4100563526153564e-02</internalNodes>
          <leafValues>
            -1.1536491662263870e-01 8.2539951801300049e-01</leafValues></_>
        <_>
          <internalNodes>
            0 -1 191 -9.5953568816184998e-03</internalNodes>
          <leafValues>
            -7.1332073211669922e-01 1.8005278706550598e-01</leafValues></_>
        <_>
          <internalNodes>
            0 -1 86 -1.1610949784517288e-01</internalNodes>
          <leafValues>
            4.9534726142883301e-01 -2.1270093321800232e-01</leafValues></_>
        <_>
          <internalNodes>
            0 -1 42 -1.1536654829978943e-01</internalNodes>
          <leafValues>
            7.2235876321792603e-01 -1.3973011076450348e-01</leafValues></_>
        <_>
          <internalNodes>
            0 -1 136 2.8840606100857258e-03</internalNodes>
          <leafValues>
            1.1313616484403610e-01 -1.</leafValues></_>
        <_>
          <internalNodes>
            0 -1 148 9.3129485845565796e-02</internalNodes>
          <leafValues>
            -2.1265189349651337e-01 4.9194818735122681e-01</leafValues></_></weakClassifiers></_>
    <!-- stage 13 -->
    <_>
      <maxWeakCount>15</maxWeakCount>
      <stageThreshold>-8.1072175502777100e-01</stageThreshold>
      <weakClassifiers>
        <_>
          <internalNodes>
            0 -1 167 2.0149277406744659e-04</internalNodes>
          <leafValues>
            4.4473007321357727e-01 -2.7482679486274719e-01</leafValues></_>
        <_>
          <internalNodes>
            0 -1 2 5.4773472249507904e-02</internalNodes>
          <leafValues>
            -1.7599651217460632e-01 5.5538839101791382e-01</leafValues></_>
        <_>
          <internalNodes>
            0 -1 78 1.6007743775844574e-02</internalNodes>
          <leafValues>
            -2.4270018935203552e-01 4.6207663416862488e-01</leafValues></_>
        <_>
          <internalNodes>
            0 -1 138 9.4119478017091751e-03</internalNodes>
          <leafValues>
            2.1009051799774170e-01 -5.1592022180557251e-01</leafValues></_>
        <_>
          <internalNodes>
            0 -1 16 2.3355922102928162e-01</internalNodes>
          <leafValues>
            -1.5505580604076385e-01 5.6816375255584717e-01</leafValues></_>
        <_>
          <internalNodes>
            0 -1 134 3.9607011713087559e-03</internalNodes>
          <leafValues>
            -3.3399266004562378e-01 4.0974014997482300e-01</leafValues></_>
        <_>
          <internalNodes>
            0 -1 133 7.2493590414524078e-03</internalNodes>
          <leafValues>
            1.0027695447206497e-01 -9.8860311508178711e-01</leafValues></_>
        <_>
          <internalNodes>
            0 -1 144 1.3297221157699823e-03</internalNodes>
          <leafValues>
            -2.2608913481235504e-01 4.5860370993614197e-01</leafValues></_>
        <_>
          <internalNodes>
            0 -1 173 -2.3788408725522459e-04</internalNodes>
          <leafValues>
            -5.7110291719436646e-01 2.5830230116844177e-01</leafValues></_>
        <_>
          <internalNodes>
            0 -1 159 -1.1704547796398401e-03</internalNodes>
          <leafValues>
            -5.9870332479476929e-01 1.3930705189704895e-01</leafValues></_>
        <_>
          <internalNodes>
            0 -1 158 1.1241475585848093e-03</internalNodes>
          <leafValues>
            2.1573059260845184e-01 -4.5122388005256653e-01</leafValues></_>
        <_>
          <internalNodes>
            0 -1 151 4.6309716999530792e-03</internalNodes>
          <leafValues>
            -1.9931919872760773e-01 6.2060874700546265e-01</leafValues></_>
        <_>
          <internalNodes>
            0 -1 12 -1.5253618359565735e-02</internalNodes>
          <leafValues>
            -8.0823755264282227e-01 1.9464381039142609e-01</leafValues></_>
        <_>
          <internalNodes>
            0 -1 180 -1.9971745496150106e-04</internalNodes>
          <leafValues>
            -4.4876348972320557e-01 2.0250137150287628e-01</leafValues></_>
        <_>
          <internalNodes>
            0 -1 149 1.2569446116685867e-03</internalNodes>
          <leafValues>
            -3.1150355935096741e-01 3.3375984430313110e-01</leafValues></_></weakClassifiers></_>
    <!-- stage 14 -->
    <_>
      <maxWeakCount>18</maxWeakCount>
      <stageThreshold>-8.3256757259368896e-01</stageThreshold>
      <weakClassifiers>
        <_>
          <internalNodes>
            0 -1 127 1.0588372824713588e-03</internalNodes>
          <leafValues>
            3.7298092246055603e-01 -4.5378151535987854e-01</leafValues></_>
        <_>
          <internalNodes>
            0 -1 137 3.0729020945727825e-03</internalNodes>
          <leafValues>
            -1.8632617592811584e-01 4.8820483684539795e-01</leafValues></_>
        <_>
          <internalNodes>
            0 -1 87 9.6763372421264648e-02</internalNodes>
          <leafValues>
            -1.8419052660465240e-01 6.2240707874298096e-01</leafValues></_>
        <_>
          <internalNodes>
            0 -1 45 -2.1314087510108948e-01</internalNodes>
          <leafValues>
            9.1139256954193115e-01 -6.1568032950162888e-02</leafValues></_>
        <_>
          <internalNodes>
            0 -1 5 -2.7272794395685196e-02</internalNodes>
          <leafValues>
            4.5696946978569031e-01 -3.3935219049453735e-01</leafValues></_>
        <_>
          <internalNodes>
            0 -1 162 2.5641988962888718e-02</internalNodes>
          <leafValues>
            -1.3665182888507843e-01 6.1765229701995850e-01</leafValues></_>
        <_>
          <internalNodes>
            0 -1 98 1.2261909432709217e-02</internalNodes>
          <leafValues>
            -2.0847059786319733e-01 5.5172610282897949e-01</leafValues></_>
        <_>
          <internalNodes>
            0 -1 195 -3.9966871554497629e-05</internalNodes>
          <leafValues>
            -4.9534502625465393e-01 2.2563262283802032e-01</leafValues></_>
        <_>
          <internalNodes>
            0 -1 141 -7.1377304266206920e-05</internalNodes>
          <leafValues>
            3.7572535872459412e-01 -3.1668266654014587e-01</leafValues></_>
        <_>
          <internalNodes>
            0 -1 146 6.9617462577298284e-04</internalNodes>
          <leafValues>
            -1.8589906394481659e-01 4.7702151536941528e-01</leafValues></_>
        <_>
          <internalNodes>
            0 -1 130 3.9408222073689103e-04</internalNodes>
          <leafValues>
            -2.4049985408782959e-01 4.4255739450454712e-01</leafValues></_>
        <_>
          <internalNodes>
            0 -1 69 1.8271400767844170e-04</internalNodes>
          <leafValues>
            1.8780286610126495e-01 -5.1406800746917725e-01</leafValues></_>
        <_>
          <internalNodes>
            0 -1 53 -3.3832958433777094e-04</internalNodes>
          <leafValues>
            -5.1988184452056885e-01 1.7615728080272675e-01</leafValues></_>
        <_>
          <internalNodes>
            0 -1 40 1.1574126780033112e-01</internalNodes>
          <leafValues>
            -1.6161353886127472e-01 6.5326786041259766e-01</leafValues></_>
        <_>
          <internalNodes>
            0 -1 156 7.8137451782822609e-04</internalNodes>
          <leafValues>
            -2.3623780906200409e-01 3.6882042884826660e-01</leafValues></_>
        <_>
          <internalNodes>
            0 -1 170 -1.2461729347705841e-02</internalNodes>
          <leafValues>
            4.3779763579368591e-01 -2.0610600709915161e-01</leafValues></_>
        <_>
          <internalNodes>
            0 -1 1 3.9156220853328705e-02</internalNodes>
          <leafValues>
            -2.2365464270114899e-01 5.1933360099792480e-01</leafValues></_>
        <_>
          <internalNodes>
            0 -1 192 -1.4861216186545789e-04</internalNodes>
          <leafValues>
            -3.8252547383308411e-01 2.5065970420837402e-01</leafValues></_></weakClassifiers></_>
    <!-- stage 15 -->
    <_>
      <maxWeakCount>19</maxWeakCount>
      <stageThreshold>-1.1149214506149292e+00</stageThreshold>
      <weakClassifiers>
        <_>
          <internalNodes>
            0 -1 48 -1.5350459143519402e-03</internalNodes>
          <leafValues>
            -3.4574466943740845e-01 4.3300652503967285e-01</leafValues></_>
        <_>
          <internalNodes>
            0 -1 168 1.7268641386181116e-04</internalNodes>
          <leafValues>
            3.1128799915313721e-01 -4.2223420739173889e-01</leafValues></_>
        <_>
          <internalNodes>
            0 -1 50 1.6961339861154556e-04</internalNodes>
          <leafValues>
            2.9269540309906006e-01 -4.0123558044433594e-01</leafValues></_>
        <_>
          <internalNodes>
            0 -1 152 -1.8419751431792974e-03</internalNodes>
          <leafValues>
            5.8024126291275024e-01 -2.1108885109424591e-01</leafValues></_>
        <_>
          <internalNodes>
            0 -1 57 -2.4773207306861877e-01</internalNodes>
          <leafValues>
            6.5246564149856567e-01 -2.1662151813507080e-01</leafValues></_>
        <_>
          <internalNodes>
            0 -1 143 5.7693233247846365e-04</internalNodes>
          <leafValues>
            -3.7147411704063416e-01 4.6845805644989014e-01</leafValues></_>
        <_>
          <internalNodes>
            0 -1 129 1.1992275249212980e-03</internalNodes>
          <leafValues>
            2.1275633573532104e-01 -7.4800843000411987e-01</leafValues></_>
        <_>
          <internalNodes>
            0 -1 96 -1.2869571219198406e-04</internalNodes>
          <leafValues>
            -4.5046928524971008e-01 2.7944433689117432e-01</leafValues></_>
        <_>
          <internalNodes>
            0 -1 56 5.9482507407665253e-02</internalNodes>
          <leafValues>
            -2.4469487369060516e-01 6.1706936359405518e-01</leafValues></_>
        <_>
          <internalNodes>
            0 -1 102 -2.0509344176389277e-04</internalNodes>
          <leafValues>
            -4.6760272979736328e-01 2.7888160943984985e-01</leafValues></_>
        <_>
          <internalNodes>
            0 -1 21 1.0786991566419601e-02</internalNodes>
          <leafValues>
            -1.8579384684562683e-01 6.9633013010025024e-01</leafValues></_>
        <_>
          <internalNodes>
            0 -1 22 3.1259388197213411e-04</internalNodes>
          <leafValues>
            -1.2122656404972076e-01 7.1883678436279297e-01</leafValues></_>
        <_>
          <internalNodes>
            0 -1 193 -3.8083607796579599e-04</internalNodes>
          <leafValues>
            -6.0509949922561646e-01 1.9189547002315521e-01</leafValues></_>
        <_>
          <internalNodes>
            0 -1 200 -2.1079671569168568e-03</internalNodes>
          <leafValues>
            8.4712481498718262e-01 -1.5045779943466187e-01</leafValues></_>
        <_>
          <internalNodes>
            0 -1 55 -2.0857296476606280e-04</internalNodes>
          <leafValues>
            8.0602079629898071e-01 -1.0269801318645477e-01</leafValues></_>
        <_>
          <internalNodes>
            0 -1 100 2.0861517987214029e-04</internalNodes>
          <leafValues>
            2.5061482191085815e-01 -4.2442104220390320e-01</leafValues></_>
        <_>
          <internalNodes>
            0 -1 13 1.4031240344047546e-01</internalNodes>
          <leafValues>
            -1.9069732725620270e-01 6.7946404218673706e-01</leafValues></_>
        <_>
          <internalNodes>
            0 -1 176 -1.5327695291489363e-03</internalNodes>
          <leafValues>
            -7.7329766750335693e-01 1.7793671786785126e-01</leafValues></_>
        <_>
          <internalNodes>
            0 -1 203 -1.0219723917543888e-03</internalNodes>
          <leafValues>
            5.5933654308319092e-01 -2.2345221042633057e-01</leafValues></_></weakClassifiers></_></stages>
  <features>
    <_>
      <rects>
        <_>
          0 0 3 30 -1.</_>
        <_>
          0 15 3 15 2.</_></rects>
      <tilted>0</tilted></_>
    <_>
      <rects>
        <_>
          0 0 26 12 -1.</_>
        <_>
          0 0 13 6 2.</_>
        <_>
          13 6 13 6 2.</_></rects>
      <tilted>0</tilted></_>
    <_>
      <rects>
        <_>
          0 0 28 12 -1.</_>
        <_>
          0 0 14 6 2.</_>
        <_>
          14 6 14 6 2.</_></rects>
      <tilted>0</tilted></_>
    <_>
      <rects>
        <_>
          0 5 10 18 -1.</_>
        <_>
          0 5 5 9 2.</_>
        <_>
          5 14 5 9 2.</_></rects>
      <tilted>0</tilted></_>
    <_>
      <rects>
        <_>
          0 6 1 24 -1.</_>
        <_>
          0 14 1 8 3.</_></rects>
      <tilted>0</tilted></_>
    <_>
      <rects>
        <_>
          0 7 10 18 -1.</_>
        <_>
          0 7 5 9 2.</_>
        <_>
          5 16 5 9 2.</_></rects>
      <tilted>0</tilted></_>
    <_>
      <rects>
        <_>
          0 7 12 14 -1.</_>
        <_>
          0 7 6 7 2.</_>
        <_>
          6 14 6 7 2.</_></rects>
      <tilted>0</tilted></_>
    <_>
      <rects>
        <_>
          0 8 8 15 -1.</_>
        <_>
          4 8 4 15 2.</_></rects>
      <tilted>0</tilted></_>
    <_>
      <rects>
        <_>
          0 8 21 5 -1.</_>
        <_>
          7 8 7 5 3.</_></rects>
      <tilted>0</tilted></_>
    <_>
      <rects>
        <_>
          0 10 28 18 -1.</_>
        <_>
          0 16 28 6 3.</_></rects>
      <tilted>0</tilted></_>
    <_>
      <rects>
        <_>
          0 14 22 2 -1.</_>
        <_>
          11 14 11 2 2.</_></rects>
      <tilted>0</tilted></_>
    <_>
      <rects>
        <_>
          0 17 18 1 -1.</_>
        <_>
          6 17 6 1 3.</_></rects>
      <tilted>0</tilted></_>
    <_>
      <rects>
        <_>
          0 29 24 1 -1.</_>
        <_>
          8 29 8 1 3.</_></rects>
      <tilted>0</tilted></_>
    <_>
      <rects>
        <_>
          1 9 18 19 -1.</_>
        <_>
          10 9 9 19 2.</_></rects>
      <tilted>0</tilted></_>
    <_>
      <rects>
        <_>
          2 2 24 21 -1.</_>
        <_>
          10 2 8 21 3.</_></rects>
      <tilted>0</tilted></_>
    <_>
      <rects>
        <_>
          2 3 24 20 -1.</_>
        <_>
          10 3 8 20 3.</_></rects>
      <tilted>0</tilted></_>
    <_>
      <rects>
        <_>
          2 4 27 24 -1.</_>
        <_>
          11 4 9 24 3.</_></rects>
      <tilted>0</tilted></_>
    <_>
      <rects>
        <_>
          2 6 24 18 -1.</_>
        <_>
          2 6 12 9 2.</_>
        <_>
          14 15 12 9 2.</_></rects>
      <tilted>0</tilted></_>
    <_>
      <rects>
        <_>
          2 10 19 9 -1.</_>
        <_>
          2 13 19 3 3.</_></rects>
      <tilted>0</tilted></_>
    <_>
      <rects>
        <_>
          2 11 2 10 -1.</_>
        <_>
          3 11 1 10 2.</_></rects>
      <tilted>0</tilted></_>
    <_>
      <rects>
        <_>
          3 7 27 19 -1.</_>
        <_>
          12 7 9 19 3.</_></rects>
      <tilted>0</tilted></_>
    <_>
      <rects>
        <_>
          3 17 18 6 -1.</_>
        <_>
          3 17 9 3 2.</_>
        <_>
          12 20 9 3 2.</_></rects>
      <tilted>0</tilted></_>
    <_>
      <rects>
        <_>
          3 20 2 4 -1.</_>
        <_>
          3 20 1 2 2.</_>
        <_>
          4 22 1 2 2.</_></rects>
      <tilted>0</tilted></_>
    <_>
      <rects>
        <_>
          4 4 25 24 -1.</_>
        <_>
          4 12 25 8 3.</_></rects>
      <tilted>0</tilted></_>
    <_>
      <rects>
        <_>
          4 6 23 18 -1.</_>
        <_>
          4 12 23 6 3.</_></rects>
      <tilted>0</tilted></_>
    <_>
      <rects>
        <_>
          4 7 11 15 -1.</_>
        <_>
          4 12 11 5 3.</_></rects>
      <tilted>0</tilted></_>
    <_>
      <rects>
        <_>
          4 7 13 15 -1.</_>
        <_>
          4 12 13 5 3.</_></rects>
      <tilted>0</tilted></_>
    <_>
      <rects>
        <_>
          4 8 22 14 -1.</_>
        <_>
          15 8 11 14 2.</_></rects>
      <tilted>0</tilted></_>
    <_>
      <rects>
        <_>
          4 13 26 5 -1.</_>
        <_>
          17 13 13 5 2.</_></rects>
      <tilted>0</tilted></_>
    <_>
      <rects>
        <_>
          4 15 26 8 -1.</_>
        <_>
          4 19 26 4 2.</_></rects>
      <tilted>0</tilted></_>
    <_>
      <rects>
        <_>
          5 3 22 24 -1.</_>
        <_>
          5 11 22 8 3.</_></rects>
      <tilted>0</tilted></_>
    <_>
      <rects>
        <_>
          5 5 9 24 -1.</_>
        <_>
          5 13 9 8 3.</_></rects>
      <tilted>0</tilted></_>
    <_>
      <rects>
        <_>
          5 7 8 15 -1.</_>
        <_>
          5 12 8 5 3.</_></rects>
      <tilted>0</tilted></_>
    <_>
      <rects>
        <_>
          5 7 18 14 -1.</_>
        <_>
          5 7 9 7 2.</_>
        <_>
          14 14 9 7 2.</_></rects>
      <tilted>0</tilted></_>
    <_>
      <rects>
        <_>
          5 8 16 7 -1.</_>
        <_>
          13 8 8 7 2.</_></rects>
      <tilted>0</tilted></_>
    <_>
      <rects>
        <_>
          5 15 24 4 -1.</_>
        <_>
          5 17 24 2 2.</_></rects>
      <tilted>0</tilted></_>
    <_>
      <rects>
        <_>
          5 16 21 2 -1.</_>
        <_>
          5 17 21 1 2.</_></rects>
      <tilted>0</tilted></_>
    <_>
      <rects>
        <_>
          5 17 16 5 -1.</_>
        <_>
          13 17 8 5 2.</_></rects>
      <tilted>0</tilted></_>
    <_>
      <rects>
        <_>
          5 19 20 1 -1.</_>
        <_>
          15 19 10 1 2.</_></rects>
      <tilted>0</tilted></_>
    <_>
      <rects>
        <_>
          6 0 22 30 -1.</_>
        <_>
          6 10 22 10 3.</_></rects>
      <tilted>0</tilted></_>
    <_>
      <rects>
        <_>
          6 1 6 21 -1.</_>
        <_>
          6 8 6 7 3.</_></rects>
      <tilted>0</tilted></_>
    <_>
      <rects>
        <_>
          6 3 18 27 -1.</_>
        <_>
          15 3 9 27 2.</_></rects>
      <tilted>0</tilted></_>
    <_>
      <rects>
        <_>
          6 5 8 21 -1.</_>
        <_>
          6 12 8 7 3.</_></rects>
      <tilted>0</tilted></_>
    <_>
      <rects>
        <_>
          6 6 18 17 -1.</_>
        <_>
          15 6 9 17 2.</_></rects>
      <tilted>0</tilted></_>
    <_>
      <rects>
        <_>
          6 6 22 20 -1.</_>
        <_>
          6 6 11 10 2.</_>
        <_>
          17 16 11 10 2.</_></rects>
      <tilted>0</tilted></_>
    <_>
      <rects>
        <_>
          6 8 16 14 -1.</_>
        <_>
          6 8 8 7 2.</_>
        <_>
          14 15 8 7 2.</_></rects>
      <tilted>0</tilted></_>
    <_>
      <rects>
        <_>
          6 8 18 16 -1.</_>
        <_>
          6 8 9 8 2.</_>
        <_>
          15 16 9 8 2.</_></rects>
      <tilted>0</tilted></_>
    <_>
      <rects>
        <_>
          6 8 20 16 -1.</_>
        <_>
          6 8 10 8 2.</_>
        <_>
          16 16 10 8 2.</_></rects>
      <tilted>0</tilted></_>
    <_>
      <rects>
        <_>
          6 10 6 9 -1.</_>
        <_>
          8 10 2 9 3.</_></rects>
      <tilted>0</tilted></_>
    <_>
      <rects>
        <_>
          6 10 19 6 -1.</_>
        <_>
          6 13 19 3 2.</_></rects>
      <tilted>0</tilted></_>
    <_>
      <rects>
        <_>
          6 12 2 3 -1.</_>
        <_>
          7 12 1 3 2.</_></rects>
      <tilted>0</tilted></_>
    <_>
      <rects>
        <_>
          6 14 3 4 -1.</_>
        <_>
          6 16 3 2 2.</_></rects>
      <tilted>0</tilted></_>
    <_>
      <rects>
        <_>
          6 15 24 1 -1.</_>
        <_>
          18 15 12 1 2.</_></rects>
      <tilted>0</tilted></_>
    <_>
      <rects>
        <_>
          6 16 4 2 -1.</_>
        <_>
          8 16 2 2 2.</_></rects>
      <tilted>0</tilted></_>
    <_>
      <rects>
        <_>
          6 18 14 1 -1.</_>
        <_>
          13 18 7 1 2.</_></rects>
      <tilted>0</tilted></_>
    <_>
      <rects>
        <_>
          6 27 2 2 -1.</_>
        <_>
          6 27 1 1 2.</_>
        <_>
          7 28 1 1 2.</_></rects>
      <tilted>0</tilted></_>
    <_>
      <rects>
        <_>
          7 0 10 16 -1.</_>
        <_>
          7 8 10 8 2.</_></rects>
      <tilted>0</tilted></_>
    <_>
      <rects>
        <_>
          7 2 22 28 -1.</_>
        <_>
          7 2 11 14 2.</_>
        <_>
          18 16 11 14 2.</_></rects>
      <tilted>0</tilted></_>
    <_>
      <rects>
        <_>
          7 3 14 24 -1.</_>
        <_>
          7 15 14 12 2.</_></rects>
      <tilted>0</tilted></_>
    <_>
      <rects>
        <_>
          7 5 15 24 -1.</_>
        <_>
          12 5 5 24 3.</_></rects>
      <tilted>0</tilted></_>
    <_>
      <rects>
        <_>
          7 5 20 24 -1.</_>
        <_>
          7 5 10 12 2.</_>
        <_>
          17 17 10 12 2.</_></rects>
      <tilted>0</tilted></_>
    <_>
      <rects>
        <_>
          7 8 14 16 -1.</_>
        <_>
          7 8 7 8 2.</_>
        <_>
          14 16 7 8 2.</_></rects>
      <tilted>0</tilted></_>
    <_>
      <rects>
        <_>
          7 8 16 14 -1.</_>
        <_>
          7 8 8 7 2.</_>
        <_>
          15 15 8 7 2.</_></rects>
      <tilted>0</tilted></_>
    <_>
      <rects>
        <_>
          7 9 18 12 -1.</_>
        <_>
          7 13 18 4 3.</_></rects>
      <tilted>0</tilted></_>
    <_>
      <rects>
        <_>
          7 10 5 12 -1.</_>
        <_>
          7 16 5 6 2.</_></rects>
      <tilted>0</tilted></_>
    <_>
      <rects>
        <_>
          7 10 16 12 -1.</_>
        <_>
          7 10 8 6 2.</_>
        <_>
          15 16 8 6 2.</_></rects>
      <tilted>0</tilted></_>
    <_>
      <rects>
        <_>
          7 11 12 3 -1.</_>
        <_>
          11 11 4 3 3.</_></rects>
      <tilted>0</tilted></_>
    <_>
      <rects>
        <_>
          7 11 14 10 -1.</_>
        <_>
          7 11 7 5 2.</_>
        <_>
          14 16 7 5 2.</_></rects>
      <tilted>0</tilted></_>
    <_>
      <rects>
        <_>
          7 11 20 9 -1.</_>
        <_>
          7 14 20 3 3.</_></rects>
      <tilted>0</tilted></_>
    <_>
      <rects>
        <_>
          7 13 2 2 -1.</_>
        <_>
          8 13 1 2 2.</_></rects>
      <tilted>0</tilted></_>
    <_>
      <rects>
        <_>
          7 15 4 1 -1.</_>
        <_>
          9 15 2 1 2.</_></rects>
      <tilted>0</tilted></_>
    <_>
      <rects>
        <_>
          7 17 12 2 -1.</_>
        <_>
          13 17 6 2 2.</_></rects>
      <tilted>0</tilted></_>
    <_>
      <rects>
        <_>
          8 6 14 16 -1.</_>
        <_>
          8 6 7 8 2.</_>
        <_>
          15 14 7 8 2.</_></rects>
      <tilted>0</tilted></_>
    <_>
      <rects>
        <_>
          8 7 12 7 -1.</_>
        <_>
          12 7 4 7 3.</_></rects>
      <tilted>0</tilted></_>
    <_>
      <rects>
        <_>
          8 7 16 14 -1.</_>
        <_>
          8 7 8 7 2.</_>
        <_>
          16 14 8 7 2.</_></rects>
      <tilted>0</tilted></_>
    <_>
      <rects>
        <_>
          8 9 14 10 -1.</_>
        <_>
          8 9 7 5 2.</_>
        <_>
          15 14 7 5 2.</_></rects>
      <tilted>0</tilted></_>
    <_>
      <rects>
        <_>
          8 9 16 14 -1.</_>
        <_>
          8 9 8 7 2.</_>
        <_>
          16 16 8 7 2.</_></rects>
      <tilted>0</tilted></_>
    <_>
      <rects>
        <_>
          8 10 14 12 -1.</_>
        <_>
          8 10 7 6 2.</_>
        <_>
          15 16 7 6 2.</_></rects>
      <tilted>0</tilted></_>
    <_>
      <rects>
        <_>
          8 10 18 6 -1.</_>
        <_>
          8 10 9 3 2.</_>
        <_>
          17 13 9 3 2.</_></rects>
      <tilted>0</tilted></_>
    <_>
      <rects>
        <_>
          8 13 10 1 -1.</_>
        <_>
          13 13 5 1 2.</_></rects>
      <tilted>0</tilted></_>
    <_>
      <rects>
        <_>
          8 17 6 3 -1.</_>
        <_>
          8 18 6 1 3.</_></rects>
      <tilted>0</tilted></_>
    <_>
      <rects>
        <_>
          8 17 18 3 -1.</_>
        <_>
          17 17 9 3 2.</_></rects>
      <tilted>0</tilted></_>
    <_>
      <rects>
        <_>
          8 18 3 2 -1.</_>
        <_>
          8 19 3 1 2.</_></rects>
      <tilted>0</tilted></_>
    <_>
      <rects>
        <_>
          8 18 12 2 -1.</_>
        <_>
          14 18 6 2 2.</_></rects>
      <tilted>0</tilted></_>
    <_>
      <rects>
        <_>
          8 18 21 4 -1.</_>
        <_>
          15 18 7 4 3.</_></rects>
      <tilted>0</tilted></_>
    <_>
      <rects>
        <_>
          8 18 13 3 -1.</_>
        <_>
          8 19 13 1 3.</_></rects>
      <tilted>0</tilted></_>
    <_>
      <rects>
        <_>
          9 5 12 23 -1.</_>
        <_>
          13 5 4 23 3.</_></rects>
      <tilted>0</tilted></_>
    <_>
      <rects>
        <_>
          9 7 12 19 -1.</_>
        <_>
          13 7 4 19 3.</_></rects>
      <tilted>0</tilted></_>
    <_>
      <rects>
        <_>
          9 7 12 22 -1.</_>
        <_>
          13 7 4 22 3.</_></rects>
      <tilted>0</tilted></_>
    <_>
      <rects>
        <_>
          9 7 18 7 -1.</_>
        <_>
          18 7 9 7 2.</_></rects>
      <tilted>0</tilted></_>
    <_>
      <rects>
        <_>
          9 8 12 16 -1.</_>
        <_>
          13 8 4 16 3.</_></rects>
      <tilted>0</tilted></_>
    <_>
      <rects>
        <_>
          9 8 14 14 -1.</_>
        <_>
          9 8 7 7 2.</_>
        <_>
          16 15 7 7 2.</_></rects>
      <tilted>0</tilted></_>
    <_>
      <rects>
        <_>
          9 9 18 4 -1.</_>
        <_>
          18 9 9 4 2.</_></rects>
      <tilted>0</tilted></_>
    <_>
      <rects>
        <_>
          9 11 21 9 -1.</_>
        <_>
          9 14 21 3 3.</_></rects>
      <tilted>0</tilted></_>
    <_>
      <rects>
        <_>
          9 12 19 6 -1.</_>
        <_>
          9 14 19 2 3.</_></rects>
      <tilted>0</tilted></_>
    <_>
      <rects>
        <_>
          9 13 12 14 -1.</_>
        <_>
          13 13 4 14 3.</_></rects>
      <tilted>0</tilted></_>
    <_>
      <rects>
        <_>
          9 15 1 4 -1.</_>
        <_>
          9 17 1 2 2.</_></rects>
      <tilted>0</tilted></_>
    <_>
      <rects>
        <_>
          9 15 6 1 -1.</_>
        <_>
          11 15 2 1 3.</_></rects>
      <tilted>0</tilted></_>
    <_>
      <rects>
        <_>
          9 15 12 4 -1.</_>
        <_>
          9 15 6 2 2.</_>
        <_>
          15 17 6 2 2.</_></rects>
      <tilted>0</tilted></_>
    <_>
      <rects>
        <_>
          9 15 15 4 -1.</_>
        <_>
          9 17 15 2 2.</_></rects>
      <tilted>0</tilted></_>
    <_>
      <rects>
        <_>
          9 18 2 4 -1.</_>
        <_>
          9 20 2 2 2.</_></rects>
      <tilted>0</tilted></_>
    <_>
      <rects>
        <_>
          9 18 21 3 -1.</_>
        <_>
          16 18 7 3 3.</_></rects>
      <tilted>0</tilted></_>
    <_>
      <rects>
        <_>
          9 19 2 4 -1.</_>
        <_>
          9 21 2 2 2.</_></rects>
      <tilted>0</tilted></_>
    <_>
      <rects>
        <_>
          10 0 12 17 -1.</_>
        <_>
          14 0 4 17 3.</_></rects>
      <tilted>0</tilted></_>
    <_>
      <rects>
        <_>
          10 1 2 18 -1.</_>
        <_>
          10 7 2 6 3.</_></rects>
      <tilted>0</tilted></_>
    <_>
      <rects>
        <_>
          10 8 8 3 -1.</_>
        <_>
          10 9 8 1 3.</_></rects>
      <tilted>0</tilted></_>
    <_>
      <rects>
        <_>
          10 9 9 6 -1.</_>
        <_>
          13 9 3 6 3.</_></rects>
      <tilted>0</tilted></_>
    <_>
      <rects>
        <_>
          10 11 10 8 -1.</_>
        <_>
          10 11 5 4 2.</_>
        <_>
          15 15 5 4 2.</_></rects>
      <tilted>0</tilted></_>
    <_>
      <rects>
        <_>
          10 14 9 8 -1.</_>
        <_>
          13 14 3 8 3.</_></rects>
      <tilted>0</tilted></_>
    <_>
      <rects>
        <_>
          10 14 16 6 -1.</_>
        <_>
          10 14 8 3 2.</_>
        <_>
          18 17 8 3 2.</_></rects>
      <tilted>0</tilted></_>
    <_>
      <rects>
        <_>
          10 18 7 3 -1.</_>
        <_>
          10 19 7 1 3.</_></rects>
      <tilted>0</tilted></_>
    <_>
      <rects>
        <_>
          11 7 9 12 -1.</_>
        <_>
          14 7 3 12 3.</_></rects>
      <tilted>0</tilted></_>
    <_>
      <rects>
        <_>
          11 7 9 13 -1.</_>
        <_>
          14 7 3 13 3.</_></rects>
      <tilted>0</tilted></_>
    <_>
      <rects>
        <_>
          11 7 9 18 -1.</_>
        <_>
          14 7 3 18 3.</_></rects>
      <tilted>0</tilted></_>
    <_>
      <rects>
        <_>
          11 7 8 16 -1.</_>
        <_>
          11 15 8 8 2.</_></rects>
      <tilted>0</tilted></_>
    <_>
      <rects>
        <_>
          11 10 6 12 -1.</_>
        <_>
          11 10 3 6 2.</_>
        <_>
          14 16 3 6 2.</_></rects>
      <tilted>0</tilted></_>
    <_>
      <rects>
        <_>
          11 11 8 8 -1.</_>
        <_>
          11 11 4 4 2.</_>
        <_>
          15 15 4 4 2.</_></rects>
      <tilted>0</tilted></_>
    <_>
      <rects>
        <_>
          11 12 8 6 -1.</_>
        <_>
          11 12 4 3 2.</_>
        <_>
          15 15 4 3 2.</_></rects>
      <tilted>0</tilted></_>
    <_>
      <rects>
        <_>
          11 15 9 10 -1.</_>
        <_>
          14 15 3 10 3.</_></rects>
      <tilted>0</tilted></_>
    <_>
      <rects>
        <_>
          11 17 8 1 -1.</_>
        <_>
          15 17 4 1 2.</_></rects>
      <tilted>0</tilted></_>
    <_>
      <rects>
        <_>
          12 2 3 23 -1.</_>
        <_>
          13 2 1 23 3.</_></rects>
      <tilted>0</tilted></_>
    <_>
      <rects>
        <_>
          12 6 15 19 -1.</_>
        <_>
          17 6 5 19 3.</_></rects>
      <tilted>0</tilted></_>
    <_>
      <rects>
        <_>
          12 9 6 16 -1.</_>
        <_>
          14 9 2 16 3.</_></rects>
      <tilted>0</tilted></_>
    <_>
      <rects>
        <_>
          12 9 8 12 -1.</_>
        <_>
          12 9 4 6 2.</_>
        <_>
          16 15 4 6 2.</_></rects>
      <tilted>0</tilted></_>
    <_>
      <rects>
        <_>
          12 12 6 6 -1.</_>
        <_>
          12 12 3 3 2.</_>
        <_>
          15 15 3 3 2.</_></rects>
      <tilted>0</tilted></_>
    <_>
      <rects>
        <_>
          12 14 6 4 -1.</_>
        <_>
          12 14 3 2 2.</_>
        <_>
          15 16 3 2 2.</_></rects>
      <tilted>0</tilted></_>
    <_>
      <rects>
        <_>
          12 14 18 2 -1.</_>
        <_>
          21 14 9 2 2.</_></rects>
      <tilted>0</tilted></_>
    <_>
      <rects>
        <_>
          13 7 5 3 -1.</_>
        <_>
          13 8 5 1 3.</_></rects>
      <tilted>0</tilted></_>
    <_>
      <rects>
        <_>
          13 9 6 10 -1.</_>
        <_>
          15 9 2 10 3.</_></rects>
      <tilted>0</tilted></_>
    <_>
      <rects>
        <_>
          13 10 5 3 -1.</_>
        <_>
          13 11 5 1 3.</_></rects>
      <tilted>0</tilted></_>
    <_>
      <rects>
        <_>
          13 14 2 2 -1.</_>
        <_>
          13 14 1 1 2.</_>
        <_>
          14 15 1 1 2.</_></rects>
      <tilted>0</tilted></_>
    <_>
      <rects>
        <_>
          13 19 5 3 -1.</_>
        <_>
          13 20 5 1 3.</_></rects>
      <tilted>0</tilted></_>
    <_>
      <rects>
        <_>
          14 5 3 20 -1.</_>
        <_>
          14 15 3 10 2.</_></rects>
      <tilted>0</tilted></_>
    <_>
      <rects>
        <_>
          14 8 1 8 -1.</_>
        <_>
          14 12 1 4 2.</_></rects>
      <tilted>0</tilted></_>
    <_>
      <rects>
        <_>
          14 8 2 8 -1.</_>
        <_>
          14 12 2 4 2.</_></rects>
      <tilted>0</tilted></_>
    <_>
      <rects>
        <_>
          14 14 4 4 -1.</_>
        <_>
          14 14 2 2 2.</_>
        <_>
          16 16 2 2 2.</_></rects>
      <tilted>0</tilted></_>
    <_>
      <rects>
        <_>
          14 15 4 1 -1.</_>
        <_>
          16 15 2 1 2.</_></rects>
      <tilted>0</tilted></_>
    <_>
      <rects>
        <_>
          14 15 10 1 -1.</_>
        <_>
          19 15 5 1 2.</_></rects>
      <tilted>0</tilted></_>
    <_>
      <rects>
        <_>
          15 0 1 26 -1.</_>
        <_>
          15 13 1 13 2.</_></rects>
      <tilted>0</tilted></_>
    <_>
      <rects>
        <_>
          15 2 12 18 -1.</_>
        <_>
          15 8 12 6 3.</_></rects>
      <tilted>0</tilted></_>
    <_>
      <rects>
        <_>
          15 5 4 17 -1.</_>
        <_>
          17 5 2 17 2.</_></rects>
      <tilted>0</tilted></_>
    <_>
      <rects>
        <_>
          15 13 2 2 -1.</_>
        <_>
          15 13 1 1 2.</_>
        <_>
          16 14 1 1 2.</_></rects>
      <tilted>0</tilted></_>
    <_>
      <rects>
        <_>
          15 14 3 1 -1.</_>
        <_>
          16 14 1 1 3.</_></rects>
      <tilted>0</tilted></_>
    <_>
      <rects>
        <_>
          15 14 2 4 -1.</_>
        <_>
          15 14 1 2 2.</_>
        <_>
          16 16 1 2 2.</_></rects>
      <tilted>0</tilted></_>
    <_>
      <rects>
        <_>
          15 15 1 4 -1.</_>
        <_>
          15 17 1 2 2.</_></rects>
      <tilted>0</tilted></_>
    <_>
      <rects>
        <_>
          15 19 6 3 -1.</_>
        <_>
          15 20 6 1 3.</_></rects>
      <tilted>0</tilted></_>
    <_>
      <rects>
        <_>
          16 1 8 4 -1.</_>
        <_>
          16 1 4 2 2.</_>
        <_>
          20 3 4 2 2.</_></rects>
      <tilted>0</tilted></_>
    <_>
      <rects>
        <_>
          16 2 12 24 -1.</_>
        <_>
          16 10 12 8 3.</_></rects>
      <tilted>0</tilted></_>
    <_>
      <rects>
        <_>
          16 7 7 14 -1.</_>
        <_>
          16 14 7 7 2.</_></rects>
      <tilted>0</tilted></_>
    <_>
      <rects>
        <_>
          16 10 1 6 -1.</_>
        <_>
          16 13 1 3 2.</_></rects>
      <tilted>0</tilted></_>
    <_>
      <rects>
        <_>
          16 12 4 9 -1.</_>
        <_>
          16 15 4 3 3.</_></rects>
      <tilted>0</tilted></_>
    <_>
      <rects>
        <_>
          16 16 6 4 -1.</_>
        <_>
          16 16 3 2 2.</_>
        <_>
          19 18 3 2 2.</_></rects>
      <tilted>0</tilted></_>
    <_>
      <rects>
        <_>
          17 2 6 4 -1.</_>
        <_>
          17 4 6 2 2.</_></rects>
      <tilted>0</tilted></_>
    <_>
      <rects>
        <_>
          17 3 4 18 -1.</_>
        <_>
          17 9 4 6 3.</_></rects>
      <tilted>0</tilted></_>
    <_>
      <rects>
        <_>
          17 8 4 2 -1.</_>
        <_>
          19 8 2 2 2.</_></rects>
      <tilted>0</tilted></_>
    <_>
      <rects>
        <_>
          17 12 2 12 -1.</_>
        <_>
          17 16 2 4 3.</_></rects>
      <tilted>0</tilted></_>
    <_>
      <rects>
        <_>
          17 12 6 8 -1.</_>
        <_>
          17 12 3 4 2.</_>
        <_>
          20 16 3 4 2.</_></rects>
      <tilted>0</tilted></_>
    <_>
      <rects>
        <_>
          17 14 3 8 -1.</_>
        <_>
          18 14 1 8 3.</_></rects>
      <tilted>0</tilted></_>
    <_>
      <rects>
        <_>
          17 14 6 6 -1.</_>
        <_>
          19 14 2 6 3.</_></rects>
      <tilted>0</tilted></_>
    <_>
      <rects>
        <_>
          17 14 6 8 -1.</_>
        <_>
          19 14 2 8 3.</_></rects>
      <tilted>0</tilted></_>
    <_>
      <rects>
        <_>
          17 19 4 2 -1.</_>
        <_>
          19 19 2 2 2.</_></rects>
      <tilted>0</tilted></_>
    <_>
      <rects>
        <_>
          17 19 2 4 -1.</_>
        <_>
          17 21 2 2 2.</_></rects>
      <tilted>0</tilted></_>
    <_>
      <rects>
        <_>
          18 9 12 14 -1.</_>
        <_>
          18 9 6 7 2.</_>
        <_>
          24 16 6 7 2.</_></rects>
      <tilted>0</tilted></_>
    <_>
      <rects>
        <_>
          18 12 6 11 -1.</_>
        <_>
          20 12 2 11 3.</_></rects>
      <tilted>0</tilted></_>
    <_>
      <rects>
        <_>
          18 14 8 1 -1.</_>
        <_>
          22 14 4 1 2.</_></rects>
      <tilted>0</tilted></_>
    <_>
      <rects>
        <_>
          18 15 6 5 -1.</_>
        <_>
          20 15 2 5 3.</_></rects>
      <tilted>0</tilted></_>
    <_>
      <rects>
        <_>
          18 19 2 2 -1.</_>
        <_>
          19 19 1 2 2.</_></rects>
      <tilted>0</tilted></_>
    <_>
      <rects>
        <_>
          18 19 3 4 -1.</_>
        <_>
          18 21 3 2 2.</_></rects>
      <tilted>0</tilted></_>
    <_>
      <rects>
        <_>
          18 20 4 3 -1.</_>
        <_>
          20 20 2 3 2.</_></rects>
      <tilted>0</tilted></_>
    <_>
      <rects>
        <_>
          19 6 5 20 -1.</_>
        <_>
          19 16 5 10 2.</_></rects>
      <tilted>0</tilted></_>
    <_>
      <rects>
        <_>
          19 9 10 16 -1.</_>
        <_>
          19 9 5 8 2.</_>
        <_>
          24 17 5 8 2.</_></rects>
      <tilted>0</tilted></_>
    <_>
      <rects>
        <_>
          19 11 6 4 -1.</_>
        <_>
          21 11 2 4 3.</_></rects>
      <tilted>0</tilted></_>
    <_>
      <rects>
        <_>
          19 14 6 1 -1.</_>
        <_>
          22 14 3 1 2.</_></rects>
      <tilted>0</tilted></_>
    <_>
      <rects>
        <_>
          19 17 4 2 -1.</_>
        <_>
          21 17 2 2 2.</_></rects>
      <tilted>0</tilted></_>
    <_>
      <rects>
        <_>
          20 9 4 2 -1.</_>
        <_>
          22 9 2 2 2.</_></rects>
      <tilted>0</tilted></_>
    <_>
      <rects>
        <_>
          20 10 4 1 -1.</_>
        <_>
          22 10 2 1 2.</_></rects>
      <tilted>0</tilted></_>
    <_>
      <rects>
        <_>
          20 11 6 4 -1.</_>
        <_>
          22 11 2 4 3.</_></rects>
      <tilted>0</tilted></_>
    <_>
      <rects>
        <_>
          20 12 3 8 -1.</_>
        <_>
          21 12 1 8 3.</_></rects>
      <tilted>0</tilted></_>
    <_>
      <rects>
        <_>
          20 14 3 2 -1.</_>
        <_>
          21 14 1 2 3.</_></rects>
      <tilted>0</tilted></_>
    <_>
      <rects>
        <_>
          20 18 1 2 -1.</_>
        <_>
          20 19 1 1 2.</_></rects>
      <tilted>0</tilted></_>
    <_>
      <rects>
        <_>
          20 20 2 4 -1.</_>
        <_>
          20 22 2 2 2.</_></rects>
      <tilted>0</tilted></_>
    <_>
      <rects>
        <_>
          21 10 2 2 -1.</_>
        <_>
          22 10 1 2 2.</_></rects>
      <tilted>0</tilted></_>
    <_>
      <rects>
        <_>
          21 11 4 2 -1.</_>
        <_>
          23 11 2 2 2.</_></rects>
      <tilted>0</tilted></_>
    <_>
      <rects>
        <_>
          21 13 4 1 -1.</_>
        <_>
          23 13 2 1 2.</_></rects>
      <tilted>0</tilted></_>
    <_>
      <rects>
        <_>
          21 14 4 1 -1.</_>
        <_>
          23 14 2 1 2.</_></rects>
      <tilted>0</tilted></_>
    <_>
      <rects>
        <_>
          21 15 3 2 -1.</_>
        <_>
          22 15 1 2 3.</_></rects>
      <tilted>0</tilted></_>
    <_>
      <rects>
        <_>
          21 17 4 2 -1.</_>
        <_>
          23 17 2 2 2.</_></rects>
      <tilted>0</tilted></_>
    <_>
      <rects>
        <_>
          22 7 4 20 -1.</_>
        <_>
          22 7 2 10 2.</_>
        <_>
          24 17 2 10 2.</_></rects>
      <tilted>0</tilted></_>
    <_>
      <rects>
        <_>
          22 13 4 2 -1.</_>
        <_>
          24 13 2 2 2.</_></rects>
      <tilted>0</tilted></_>
    <_>
      <rects>
        <_>
          22 15 2 4 -1.</_>
        <_>
          22 17 2 2 2.</_></rects>
      <tilted>0</tilted></_>
    <_>
      <rects>
        <_>
          22 15 4 2 -1.</_>
        <_>
          22 16 4 1 2.</_></rects>
      <tilted>0</tilted></_>
    <_>
      <rects>
        <_>
          23 0 7 4 -1.</_>
        <_>
          23 2 7 2 2.</_></rects>
      <tilted>0</tilted></_>
    <_>
      <rects>
        <_>
          23 12 2 6 -1.</_>
        <_>
          23 15 2 3 2.</_></rects>
      <tilted>0</tilted></_>
    <_>
      <rects>
        <_>
          23 13 3 5 -1.</_>
        <_>
          24 13 1 5 3.</_></rects>
      <tilted>0</tilted></_>
    <_>
      <rects>
        <_>
          23 13 2 4 -1.</_>
        <_>
          23 15 2 2 2.</_></rects>
      <tilted>0</tilted></_>
    <_>
      <rects>
        <_>
          23 14 3 1 -1.</_>
        <_>
          24 14 1 1 3.</_></rects>
      <tilted>0</tilted></_>
    <_>
      <rects>
        <_>
          24 9 6 18 -1.</_>
        <_>
          24 9 3 9 2.</_>
        <_>
          27 18 3 9 2.</_></rects>
      <tilted>0</tilted></_>
    <_>
      <rects>
        <_>
          24 15 1 2 -1.</_>
        <_>
          24 16 1 1 2.</_></rects>
      <tilted>0</tilted></_>
    <_>
      <rects>
        <_>
          25 0 1 30 -1.</_>
        <_>
          25 10 1 10 3.</_></rects>
      <tilted>0</tilted></_>
    <_>
      <rects>
        <_>
          26 8 4 14 -1.</_>
        <_>
          28 8 2 14 2.</_></rects>
      <tilted>0</tilted></_>
    <_>
      <rects>
        <_>
          26 21 3 9 -1.</_>
        <_>
          27 21 1 9 3.</_></rects>
      <tilted>0</tilted></_>
    <_>
      <rects>
        <_>
          27 10 2 12 -1.</_>
        <_>
          28 10 1 12 2.</_></rects>
      <tilted>0</tilted></_>
    <_>
      <rects>
        <_>
          28 11 2 12 -1.</_>
        <_>
          29 11 1 12 2.</_></rects>
      <tilted>0</tilted></_>
    <_>
      <rects>
        <_>
          28 12 2 8 -1.</_>
        <_>
          28 12 1 4 2.</_>
        <_>
          29 16 1 4 2.</_></rects>
      <tilted>0</tilted></_>
    <_>
      <rects>
        <_>
          29 6 1 24 -1.</_>
        <_>
          29 18 1 12 2.</_></rects>
      <tilted>0</tilted></_></features></cascade>
</opencv_storage>
